tree
version=v4
num_class=1
num_tree_per_iteration=1
label_index=0
max_feature_idx=2567
objective=binary sigmoid:1
feature_names=Column_0 Column_1 Column_2 Column_3 Column_4 Column_5 Column_6 Column_7 Column_8 Column_9 Column_10 Column_11 Column_12 Column_13 Column_14 Column_15 Column_16 Column_17 Column_18 Column_19 Column_20 Column_21 Column_22 Column_23 Column_24 Column_25 Column_26 Column_27 Column_28 Column_29 Column_30 Column_31 Column_32 Column_33 Column_34 Column_35 Column_36 Column_37 Column_38 Column_39 Column_40 Column_41 Column_42 Column_43 Column_44 Column_45 Column_46 Column_47 Column_48 Column_49 Column_50 Column_51 Column_52 Column_53 Column_54 Column_55 Column_56 Column_57 Column_58 Column_59 Column_60 Column_61 Column_62 Column_63 Column_64 Column_65 Column_66 Column_67 Column_68 Column_69 Column_70 Column_71 Column_72 Column_73 Column_74 Column_75 Column_76 Column_77 Column_78 Column_79 Column_80 Column_81 Column_82 Column_83 Column_84 Column_85 Column_86 Column_87 Column_88 Column_89 Column_90 Column_91 Column_92 Column_93 Column_94 Column_95 Column_96 Column_97 Column_98 Column_99 Column_100 Column_101 Column_102 Column_103 Column_104 Column_105 Column_106 Column_107 Column_108 Column_109 Column_110 Column_111 Column_112 Column_113 Column_114 Column_115 Column_116 Column_117 Column_118 Column_119 Column_120 Column_121 Column_122 Column_123 Column_124 Column_125 Column_126 Column_127 Column_128 Column_129 Column_130 Column_131 Column_132 Column_133 Column_134 Column_135 Column_136 Column_137 Column_138 Column_139 Column_140 Column_141 Column_142 Column_143 Column_144 Column_145 Column_146 Column_147 Column_148 Column_149 Column_150 Column_151 Column_152 Column_153 Column_154 Column_155 Column_156 Column_157 Column_158 Column_159 Column_160 Column_161 Column_162 Column_163 Column_164 Column_165 Column_166 Column_167 Column_168 Column_169 Column_170 Column_171 Column_172 Column_173 Column_174 Column_175 Column_176 Column_177 Column_178 Column_179 Column_180 Column_181 Column_182 Column_183 Column_184 Column_185 Column_186 Column_187 Column_188 Column_189 Column_190 Column_191 Column_192 Column_193 Column_194 Column_195 Column_196 Column_197 Column_198 Column_199 Column_200 Column_201 Column_202 Column_203 Column_204 Column_205 Column_206 Column_207 Column_208 Column_209 Column_210 Column_211 Column_212 Column_213 Column_214 Column_215 Column_216 Column_217 Column_218 Column_219 Column_220 Column_221 Column_222 Column_223 Column_224 Column_225 Column_226 Column_227 Column_228 Column_229 Column_230 Column_231 Column_232 Column_233 Column_234 Column_235 Column_236 Column_237 Column_238 Column_239 Column_240 Column_241 Column_242 Column_243 Column_244 Column_245 Column_246 Column_247 Column_248 Column_249 Column_250 Column_251 Column_252 Column_253 Column_254 Column_255 Column_256 Column_257 Column_258 Column_259 Column_260 Column_261 Column_262 Column_263 Column_264 Column_265 Column_266 Column_267 Column_268 Column_269 Column_270 Column_271 Column_272 Column_273 Column_274 Column_275 Column_276 Column_277 Column_278 Column_279 Column_280 Column_281 Column_282 Column_283 Column_284 Column_285 Column_286 Column_287 Column_288 Column_289 Column_290 Column_291 Column_292 Column_293 Column_294 Column_295 Column_296 Column_297 Column_298 Column_299 Column_300 Column_301 Column_302 Column_303 Column_304 Column_305 Column_306 Column_307 Column_308 Column_309 Column_310 Column_311 Column_312 Column_313 Column_314 Column_315 Column_316 Column_317 Column_318 Column_319 Column_320 Column_321 Column_322 Column_323 Column_324 Column_325 Column_326 Column_327 Column_328 Column_329 Column_330 Column_331 Column_332 Column_333 Column_334 Column_335 Column_336 Column_337 Column_338 Column_339 Column_340 Column_341 Column_342 Column_343 Column_344 Column_345 Column_346 Column_347 Column_348 Column_349 Column_350 Column_351 Column_352 Column_353 Column_354 Column_355 Column_356 Column_357 Column_358 Column_359 Column_360 Column_361 Column_362 Column_363 Column_364 Column_365 Column_366 Column_367 Column_368 Column_369 Column_370 Column_371 Column_372 Column_373 Column_374 Column_375 Column_376 Column_377 Column_378 Column_379 Column_380 Column_381 Column_382 Column_383 Column_384 Column_385 Column_386 Column_387 Column_388 Column_389 Column_390 Column_391 Column_392 Column_393 Column_394 Column_395 Column_396 Column_397 Column_398 Column_399 Column_400 Column_401 Column_402 Column_403 Column_404 Column_405 Column_406 Column_407 Column_408 Column_409 Column_410 Column_411 Column_412 Column_413 Column_414 Column_415 Column_416 Column_417 Column_418 Column_419 Column_420 Column_421 Column_422 Column_423 Column_424 Column_425 Column_426 Column_427 Column_428 Column_429 Column_430 Column_431 Column_432 Column_433 Column_434 Column_435 Column_436 Column_437 Column_438 Column_439 Column_440 Column_441 Column_442 Column_443 Column_444 Column_445 Column_446 Column_447 Column_448 Column_449 Column_450 Column_451 Column_452 Column_453 Column_454 Column_455 Column_456 Column_457 Column_458 Column_459 Column_460 Column_461 Column_462 Column_463 Column_464 Column_465 Column_466 Column_467 Column_468 Column_469 Column_470 Column_471 Column_472 Column_473 Column_474 Column_475 Column_476 Column_477 Column_478 Column_479 Column_480 Column_481 Column_482 Column_483 Column_484 Column_485 Column_486 Column_487 Column_488 Column_489 Column_490 Column_491 Column_492 Column_493 Column_494 Column_495 Column_496 Column_497 Column_498 Column_499 Column_500 Column_501 Column_502 Column_503 Column_504 Column_505 Column_506 Column_507 Column_508 Column_509 Column_510 Column_511 Column_512 Column_513 Column_514 Column_515 Column_516 Column_517 Column_518 Column_519 Column_520 Column_521 Column_522 Column_523 Column_524 Column_525 Column_526 Column_527 Column_528 Column_529 Column_530 Column_531 Column_532 Column_533 Column_534 Column_535 Column_536 Column_537 Column_538 Column_539 Column_540 Column_541 Column_542 Column_543 Column_544 Column_545 Column_546 Column_547 Column_548 Column_549 Column_550 Column_551 Column_552 Column_553 Column_554 Column_555 Column_556 Column_557 Column_558 Column_559 Column_560 Column_561 Column_562 Column_563 Column_564 Column_565 Column_566 Column_567 Column_568 Column_569 Column_570 Column_571 Column_572 Column_573 Column_574 Column_575 Column_576 Column_577 Column_578 Column_579 Column_580 Column_581 Column_582 Column_583 Column_584 Column_585 Column_586 Column_587 Column_588 Column_589 Column_590 Column_591 Column_592 Column_593 Column_594 Column_595 Column_596 Column_597 Column_598 Column_599 Column_600 Column_601 Column_602 Column_603 Column_604 Column_605 Column_606 Column_607 Column_608 Column_609 Column_610 Column_611 Column_612 Column_613 Column_614 Column_615 Column_616 Column_617 Column_618 Column_619 Column_620 Column_621 Column_622 Column_623 Column_624 Column_625 Column_626 Column_627 Column_628 Column_629 Column_630 Column_631 Column_632 Column_633 Column_634 Column_635 Column_636 Column_637 Column_638 Column_639 Column_640 Column_641 Column_642 Column_643 Column_644 Column_645 Column_646 Column_647 Column_648 Column_649 Column_650 Column_651 Column_652 Column_653 Column_654 Column_655 Column_656 Column_657 Column_658 Column_659 Column_660 Column_661 Column_662 Column_663 Column_664 Column_665 Column_666 Column_667 Column_668 Column_669 Column_670 Column_671 Column_672 Column_673 Column_674 Column_675 Column_676 Column_677 Column_678 Column_679 Column_680 Column_681 Column_682 Column_683 Column_684 Column_685 Column_686 Column_687 Column_688 Column_689 Column_690 Column_691 Column_692 Column_693 Column_694 Column_695 Column_696 Column_697 Column_698 Column_699 Column_700 Column_701 Column_702 Column_703 Column_704 Column_705 Column_706 Column_707 Column_708 Column_709 Column_710 Column_711 Column_712 Column_713 Column_714 Column_715 Column_716 Column_717 Column_718 Column_719 Column_720 Column_721 Column_722 Column_723 Column_724 Column_725 Column_726 Column_727 Column_728 Column_729 Column_730 Column_731 Column_732 Column_733 Column_734 Column_735 Column_736 Column_737 Column_738 Column_739 Column_740 Column_741 Column_742 Column_743 Column_744 Column_745 Column_746 Column_747 Column_748 Column_749 Column_750 Column_751 Column_752 Column_753 Column_754 Column_755 Column_756 Column_757 Column_758 Column_759 Column_760 Column_761 Column_762 Column_763 Column_764 Column_765 Column_766 Column_767 Column_768 Column_769 Column_770 Column_771 Column_772 Column_773 Column_774 Column_775 Column_776 Column_777 Column_778 Column_779 Column_780 Column_781 Column_782 Column_783 Column_784 Column_785 Column_786 Column_787 Column_788 Column_789 Column_790 Column_791 Column_792 Column_793 Column_794 Column_795 Column_796 Column_797 Column_798 Column_799 Column_800 Column_801 Column_802 Column_803 Column_804 Column_805 Column_806 Column_807 Column_808 Column_809 Column_810 Column_811 Column_812 Column_813 Column_814 Column_815 Column_816 Column_817 Column_818 Column_819 Column_820 Column_821 Column_822 Column_823 Column_824 Column_825 Column_826 Column_827 Column_828 Column_829 Column_830 Column_831 Column_832 Column_833 Column_834 Column_835 Column_836 Column_837 Column_838 Column_839 Column_840 Column_841 Column_842 Column_843 Column_844 Column_845 Column_846 Column_847 Column_848 Column_849 Column_850 Column_851 Column_852 Column_853 Column_854 Column_855 Column_856 Column_857 Column_858 Column_859 Column_860 Column_861 Column_862 Column_863 Column_864 Column_865 Column_866 Column_867 Column_868 Column_869 Column_870 Column_871 Column_872 Column_873 Column_874 Column_875 Column_876 Column_877 Column_878 Column_879 Column_880 Column_881 Column_882 Column_883 Column_884 Column_885 Column_886 Column_887 Column_888 Column_889 Column_890 Column_891 Column_892 Column_893 Column_894 Column_895 Column_896 Column_897 Column_898 Column_899 Column_900 Column_901 Column_902 Column_903 Column_904 Column_905 Column_906 Column_907 Column_908 Column_909 Column_910 Column_911 Column_912 Column_913 Column_914 Column_915 Column_916 Column_917 Column_918 Column_919 Column_920 Column_921 Column_922 Column_923 Column_924 Column_925 Column_926 Column_927 Column_928 Column_929 Column_930 Column_931 Column_932 Column_933 Column_934 Column_935 Column_936 Column_937 Column_938 Column_939 Column_940 Column_941 Column_942 Column_943 Column_944 Column_945 Column_946 Column_947 Column_948 Column_949 Column_950 Column_951 Column_952 Column_953 Column_954 Column_955 Column_956 Column_957 Column_958 Column_959 Column_960 Column_961 Column_962 Column_963 Column_964 Column_965 Column_966 Column_967 Column_968 Column_969 Column_970 Column_971 Column_972 Column_973 Column_974 Column_975 Column_976 Column_977 Column_978 Column_979 Column_980 Column_981 Column_982 Column_983 Column_984 Column_985 Column_986 Column_987 Column_988 Column_989 Column_990 Column_991 Column_992 Column_993 Column_994 Column_995 Column_996 Column_997 Column_998 Column_999 Column_1000 Column_1001 Column_1002 Column_1003 Column_1004 Column_1005 Column_1006 Column_1007 Column_1008 Column_1009 Column_1010 Column_1011 Column_1012 Column_1013 Column_1014 Column_1015 Column_1016 Column_1017 Column_1018 Column_1019 Column_1020 Column_1021 Column_1022 Column_1023 Column_1024 Column_1025 Column_1026 Column_1027 Column_1028 Column_1029 Column_1030 Column_1031 Column_1032 Column_1033 Column_1034 Column_1035 Column_1036 Column_1037 Column_1038 Column_1039 Column_1040 Column_1041 Column_1042 Column_1043 Column_1044 Column_1045 Column_1046 Column_1047 Column_1048 Column_1049 Column_1050 Column_1051 Column_1052 Column_1053 Column_1054 Column_1055 Column_1056 Column_1057 Column_1058 Column_1059 Column_1060 Column_1061 Column_1062 Column_1063 Column_1064 Column_1065 Column_1066 Column_1067 Column_1068 Column_1069 Column_1070 Column_1071 Column_1072 Column_1073 Column_1074 Column_1075 Column_1076 Column_1077 Column_1078 Column_1079 Column_1080 Column_1081 Column_1082 Column_1083 Column_1084 Column_1085 Column_1086 Column_1087 Column_1088 Column_1089 Column_1090 Column_1091 Column_1092 Column_1093 Column_1094 Column_1095 Column_1096 Column_1097 Column_1098 Column_1099 Column_1100 Column_1101 Column_1102 Column_1103 Column_1104 Column_1105 Column_1106 Column_1107 Column_1108 Column_1109 Column_1110 Column_1111 Column_1112 Column_1113 Column_1114 Column_1115 Column_1116 Column_1117 Column_1118 Column_1119 Column_1120 Column_1121 Column_1122 Column_1123 Column_1124 Column_1125 Column_1126 Column_1127 Column_1128 Column_1129 Column_1130 Column_1131 Column_1132 Column_1133 Column_1134 Column_1135 Column_1136 Column_1137 Column_1138 Column_1139 Column_1140 Column_1141 Column_1142 Column_1143 Column_1144 Column_1145 Column_1146 Column_1147 Column_1148 Column_1149 Column_1150 Column_1151 Column_1152 Column_1153 Column_1154 Column_1155 Column_1156 Column_1157 Column_1158 Column_1159 Column_1160 Column_1161 Column_1162 Column_1163 Column_1164 Column_1165 Column_1166 Column_1167 Column_1168 Column_1169 Column_1170 Column_1171 Column_1172 Column_1173 Column_1174 Column_1175 Column_1176 Column_1177 Column_1178 Column_1179 Column_1180 Column_1181 Column_1182 Column_1183 Column_1184 Column_1185 Column_1186 Column_1187 Column_1188 Column_1189 Column_1190 Column_1191 Column_1192 Column_1193 Column_1194 Column_1195 Column_1196 Column_1197 Column_1198 Column_1199 Column_1200 Column_1201 Column_1202 Column_1203 Column_1204 Column_1205 Column_1206 Column_1207 Column_1208 Column_1209 Column_1210 Column_1211 Column_1212 Column_1213 Column_1214 Column_1215 Column_1216 Column_1217 Column_1218 Column_1219 Column_1220 Column_1221 Column_1222 Column_1223 Column_1224 Column_1225 Column_1226 Column_1227 Column_1228 Column_1229 Column_1230 Column_1231 Column_1232 Column_1233 Column_1234 Column_1235 Column_1236 Column_1237 Column_1238 Column_1239 Column_1240 Column_1241 Column_1242 Column_1243 Column_1244 Column_1245 Column_1246 Column_1247 Column_1248 Column_1249 Column_1250 Column_1251 Column_1252 Column_1253 Column_1254 Column_1255 Column_1256 Column_1257 Column_1258 Column_1259 Column_1260 Column_1261 Column_1262 Column_1263 Column_1264 Column_1265 Column_1266 Column_1267 Column_1268 Column_1269 Column_1270 Column_1271 Column_1272 Column_1273 Column_1274 Column_1275 Column_1276 Column_1277 Column_1278 Column_1279 Column_1280 Column_1281 Column_1282 Column_1283 Column_1284 Column_1285 Column_1286 Column_1287 Column_1288 Column_1289 Column_1290 Column_1291 Column_1292 Column_1293 Column_1294 Column_1295 Column_1296 Column_1297 Column_1298 Column_1299 Column_1300 Column_1301 Column_1302 Column_1303 Column_1304 Column_1305 Column_1306 Column_1307 Column_1308 Column_1309 Column_1310 Column_1311 Column_1312 Column_1313 Column_1314 Column_1315 Column_1316 Column_1317 Column_1318 Column_1319 Column_1320 Column_1321 Column_1322 Column_1323 Column_1324 Column_1325 Column_1326 Column_1327 Column_1328 Column_1329 Column_1330 Column_1331 Column_1332 Column_1333 Column_1334 Column_1335 Column_1336 Column_1337 Column_1338 Column_1339 Column_1340 Column_1341 Column_1342 Column_1343 Column_1344 Column_1345 Column_1346 Column_1347 Column_1348 Column_1349 Column_1350 Column_1351 Column_1352 Column_1353 Column_1354 Column_1355 Column_1356 Column_1357 Column_1358 Column_1359 Column_1360 Column_1361 Column_1362 Column_1363 Column_1364 Column_1365 Column_1366 Column_1367 Column_1368 Column_1369 Column_1370 Column_1371 Column_1372 Column_1373 Column_1374 Column_1375 Column_1376 Column_1377 Column_1378 Column_1379 Column_1380 Column_1381 Column_1382 Column_1383 Column_1384 Column_1385 Column_1386 Column_1387 Column_1388 Column_1389 Column_1390 Column_1391 Column_1392 Column_1393 Column_1394 Column_1395 Column_1396 Column_1397 Column_1398 Column_1399 Column_1400 Column_1401 Column_1402 Column_1403 Column_1404 Column_1405 Column_1406 Column_1407 Column_1408 Column_1409 Column_1410 Column_1411 Column_1412 Column_1413 Column_1414 Column_1415 Column_1416 Column_1417 Column_1418 Column_1419 Column_1420 Column_1421 Column_1422 Column_1423 Column_1424 Column_1425 Column_1426 Column_1427 Column_1428 Column_1429 Column_1430 Column_1431 Column_1432 Column_1433 Column_1434 Column_1435 Column_1436 Column_1437 Column_1438 Column_1439 Column_1440 Column_1441 Column_1442 Column_1443 Column_1444 Column_1445 Column_1446 Column_1447 Column_1448 Column_1449 Column_1450 Column_1451 Column_1452 Column_1453 Column_1454 Column_1455 Column_1456 Column_1457 Column_1458 Column_1459 Column_1460 Column_1461 Column_1462 Column_1463 Column_1464 Column_1465 Column_1466 Column_1467 Column_1468 Column_1469 Column_1470 Column_1471 Column_1472 Column_1473 Column_1474 Column_1475 Column_1476 Column_1477 Column_1478 Column_1479 Column_1480 Column_1481 Column_1482 Column_1483 Column_1484 Column_1485 Column_1486 Column_1487 Column_1488 Column_1489 Column_1490 Column_1491 Column_1492 Column_1493 Column_1494 Column_1495 Column_1496 Column_1497 Column_1498 Column_1499 Column_1500 Column_1501 Column_1502 Column_1503 Column_1504 Column_1505 Column_1506 Column_1507 Column_1508 Column_1509 Column_1510 Column_1511 Column_1512 Column_1513 Column_1514 Column_1515 Column_1516 Column_1517 Column_1518 Column_1519 Column_1520 Column_1521 Column_1522 Column_1523 Column_1524 Column_1525 Column_1526 Column_1527 Column_1528 Column_1529 Column_1530 Column_1531 Column_1532 Column_1533 Column_1534 Column_1535 Column_1536 Column_1537 Column_1538 Column_1539 Column_1540 Column_1541 Column_1542 Column_1543 Column_1544 Column_1545 Column_1546 Column_1547 Column_1548 Column_1549 Column_1550 Column_1551 Column_1552 Column_1553 Column_1554 Column_1555 Column_1556 Column_1557 Column_1558 Column_1559 Column_1560 Column_1561 Column_1562 Column_1563 Column_1564 Column_1565 Column_1566 Column_1567 Column_1568 Column_1569 Column_1570 Column_1571 Column_1572 Column_1573 Column_1574 Column_1575 Column_1576 Column_1577 Column_1578 Column_1579 Column_1580 Column_1581 Column_1582 Column_1583 Column_1584 Column_1585 Column_1586 Column_1587 Column_1588 Column_1589 Column_1590 Column_1591 Column_1592 Column_1593 Column_1594 Column_1595 Column_1596 Column_1597 Column_1598 Column_1599 Column_1600 Column_1601 Column_1602 Column_1603 Column_1604 Column_1605 Column_1606 Column_1607 Column_1608 Column_1609 Column_1610 Column_1611 Column_1612 Column_1613 Column_1614 Column_1615 Column_1616 Column_1617 Column_1618 Column_1619 Column_1620 Column_1621 Column_1622 Column_1623 Column_1624 Column_1625 Column_1626 Column_1627 Column_1628 Column_1629 Column_1630 Column_1631 Column_1632 Column_1633 Column_1634 Column_1635 Column_1636 Column_1637 Column_1638 Column_1639 Column_1640 Column_1641 Column_1642 Column_1643 Column_1644 Column_1645 Column_1646 Column_1647 Column_1648 Column_1649 Column_1650 Column_1651 Column_1652 Column_1653 Column_1654 Column_1655 Column_1656 Column_1657 Column_1658 Column_1659 Column_1660 Column_1661 Column_1662 Column_1663 Column_1664 Column_1665 Column_1666 Column_1667 Column_1668 Column_1669 Column_1670 Column_1671 Column_1672 Column_1673 Column_1674 Column_1675 Column_1676 Column_1677 Column_1678 Column_1679 Column_1680 Column_1681 Column_1682 Column_1683 Column_1684 Column_1685 Column_1686 Column_1687 Column_1688 Column_1689 Column_1690 Column_1691 Column_1692 Column_1693 Column_1694 Column_1695 Column_1696 Column_1697 Column_1698 Column_1699 Column_1700 Column_1701 Column_1702 Column_1703 Column_1704 Column_1705 Column_1706 Column_1707 Column_1708 Column_1709 Column_1710 Column_1711 Column_1712 Column_1713 Column_1714 Column_1715 Column_1716 Column_1717 Column_1718 Column_1719 Column_1720 Column_1721 Column_1722 Column_1723 Column_1724 Column_1725 Column_1726 Column_1727 Column_1728 Column_1729 Column_1730 Column_1731 Column_1732 Column_1733 Column_1734 Column_1735 Column_1736 Column_1737 Column_1738 Column_1739 Column_1740 Column_1741 Column_1742 Column_1743 Column_1744 Column_1745 Column_1746 Column_1747 Column_1748 Column_1749 Column_1750 Column_1751 Column_1752 Column_1753 Column_1754 Column_1755 Column_1756 Column_1757 Column_1758 Column_1759 Column_1760 Column_1761 Column_1762 Column_1763 Column_1764 Column_1765 Column_1766 Column_1767 Column_1768 Column_1769 Column_1770 Column_1771 Column_1772 Column_1773 Column_1774 Column_1775 Column_1776 Column_1777 Column_1778 Column_1779 Column_1780 Column_1781 Column_1782 Column_1783 Column_1784 Column_1785 Column_1786 Column_1787 Column_1788 Column_1789 Column_1790 Column_1791 Column_1792 Column_1793 Column_1794 Column_1795 Column_1796 Column_1797 Column_1798 Column_1799 Column_1800 Column_1801 Column_1802 Column_1803 Column_1804 Column_1805 Column_1806 Column_1807 Column_1808 Column_1809 Column_1810 Column_1811 Column_1812 Column_1813 Column_1814 Column_1815 Column_1816 Column_1817 Column_1818 Column_1819 Column_1820 Column_1821 Column_1822 Column_1823 Column_1824 Column_1825 Column_1826 Column_1827 Column_1828 Column_1829 Column_1830 Column_1831 Column_1832 Column_1833 Column_1834 Column_1835 Column_1836 Column_1837 Column_1838 Column_1839 Column_1840 Column_1841 Column_1842 Column_1843 Column_1844 Column_1845 Column_1846 Column_1847 Column_1848 Column_1849 Column_1850 Column_1851 Column_1852 Column_1853 Column_1854 Column_1855 Column_1856 Column_1857 Column_1858 Column_1859 Column_1860 Column_1861 Column_1862 Column_1863 Column_1864 Column_1865 Column_1866 Column_1867 Column_1868 Column_1869 Column_1870 Column_1871 Column_1872 Column_1873 Column_1874 Column_1875 Column_1876 Column_1877 Column_1878 Column_1879 Column_1880 Column_1881 Column_1882 Column_1883 Column_1884 Column_1885 Column_1886 Column_1887 Column_1888 Column_1889 Column_1890 Column_1891 Column_1892 Column_1893 Column_1894 Column_1895 Column_1896 Column_1897 Column_1898 Column_1899 Column_1900 Column_1901 Column_1902 Column_1903 Column_1904 Column_1905 Column_1906 Column_1907 Column_1908 Column_1909 Column_1910 Column_1911 Column_1912 Column_1913 Column_1914 Column_1915 Column_1916 Column_1917 Column_1918 Column_1919 Column_1920 Column_1921 Column_1922 Column_1923 Column_1924 Column_1925 Column_1926 Column_1927 Column_1928 Column_1929 Column_1930 Column_1931 Column_1932 Column_1933 Column_1934 Column_1935 Column_1936 Column_1937 Column_1938 Column_1939 Column_1940 Column_1941 Column_1942 Column_1943 Column_1944 Column_1945 Column_1946 Column_1947 Column_1948 Column_1949 Column_1950 Column_1951 Column_1952 Column_1953 Column_1954 Column_1955 Column_1956 Column_1957 Column_1958 Column_1959 Column_1960 Column_1961 Column_1962 Column_1963 Column_1964 Column_1965 Column_1966 Column_1967 Column_1968 Column_1969 Column_1970 Column_1971 Column_1972 Column_1973 Column_1974 Column_1975 Column_1976 Column_1977 Column_1978 Column_1979 Column_1980 Column_1981 Column_1982 Column_1983 Column_1984 Column_1985 Column_1986 Column_1987 Column_1988 Column_1989 Column_1990 Column_1991 Column_1992 Column_1993 Column_1994 Column_1995 Column_1996 Column_1997 Column_1998 Column_1999 Column_2000 Column_2001 Column_2002 Column_2003 Column_2004 Column_2005 Column_2006 Column_2007 Column_2008 Column_2009 Column_2010 Column_2011 Column_2012 Column_2013 Column_2014 Column_2015 Column_2016 Column_2017 Column_2018 Column_2019 Column_2020 Column_2021 Column_2022 Column_2023 Column_2024 Column_2025 Column_2026 Column_2027 Column_2028 Column_2029 Column_2030 Column_2031 Column_2032 Column_2033 Column_2034 Column_2035 Column_2036 Column_2037 Column_2038 Column_2039 Column_2040 Column_2041 Column_2042 Column_2043 Column_2044 Column_2045 Column_2046 Column_2047 Column_2048 Column_2049 Column_2050 Column_2051 Column_2052 Column_2053 Column_2054 Column_2055 Column_2056 Column_2057 Column_2058 Column_2059 Column_2060 Column_2061 Column_2062 Column_2063 Column_2064 Column_2065 Column_2066 Column_2067 Column_2068 Column_2069 Column_2070 Column_2071 Column_2072 Column_2073 Column_2074 Column_2075 Column_2076 Column_2077 Column_2078 Column_2079 Column_2080 Column_2081 Column_2082 Column_2083 Column_2084 Column_2085 Column_2086 Column_2087 Column_2088 Column_2089 Column_2090 Column_2091 Column_2092 Column_2093 Column_2094 Column_2095 Column_2096 Column_2097 Column_2098 Column_2099 Column_2100 Column_2101 Column_2102 Column_2103 Column_2104 Column_2105 Column_2106 Column_2107 Column_2108 Column_2109 Column_2110 Column_2111 Column_2112 Column_2113 Column_2114 Column_2115 Column_2116 Column_2117 Column_2118 Column_2119 Column_2120 Column_2121 Column_2122 Column_2123 Column_2124 Column_2125 Column_2126 Column_2127 Column_2128 Column_2129 Column_2130 Column_2131 Column_2132 Column_2133 Column_2134 Column_2135 Column_2136 Column_2137 Column_2138 Column_2139 Column_2140 Column_2141 Column_2142 Column_2143 Column_2144 Column_2145 Column_2146 Column_2147 Column_2148 Column_2149 Column_2150 Column_2151 Column_2152 Column_2153 Column_2154 Column_2155 Column_2156 Column_2157 Column_2158 Column_2159 Column_2160 Column_2161 Column_2162 Column_2163 Column_2164 Column_2165 Column_2166 Column_2167 Column_2168 Column_2169 Column_2170 Column_2171 Column_2172 Column_2173 Column_2174 Column_2175 Column_2176 Column_2177 Column_2178 Column_2179 Column_2180 Column_2181 Column_2182 Column_2183 Column_2184 Column_2185 Column_2186 Column_2187 Column_2188 Column_2189 Column_2190 Column_2191 Column_2192 Column_2193 Column_2194 Column_2195 Column_2196 Column_2197 Column_2198 Column_2199 Column_2200 Column_2201 Column_2202 Column_2203 Column_2204 Column_2205 Column_2206 Column_2207 Column_2208 Column_2209 Column_2210 Column_2211 Column_2212 Column_2213 Column_2214 Column_2215 Column_2216 Column_2217 Column_2218 Column_2219 Column_2220 Column_2221 Column_2222 Column_2223 Column_2224 Column_2225 Column_2226 Column_2227 Column_2228 Column_2229 Column_2230 Column_2231 Column_2232 Column_2233 Column_2234 Column_2235 Column_2236 Column_2237 Column_2238 Column_2239 Column_2240 Column_2241 Column_2242 Column_2243 Column_2244 Column_2245 Column_2246 Column_2247 Column_2248 Column_2249 Column_2250 Column_2251 Column_2252 Column_2253 Column_2254 Column_2255 Column_2256 Column_2257 Column_2258 Column_2259 Column_2260 Column_2261 Column_2262 Column_2263 Column_2264 Column_2265 Column_2266 Column_2267 Column_2268 Column_2269 Column_2270 Column_2271 Column_2272 Column_2273 Column_2274 Column_2275 Column_2276 Column_2277 Column_2278 Column_2279 Column_2280 Column_2281 Column_2282 Column_2283 Column_2284 Column_2285 Column_2286 Column_2287 Column_2288 Column_2289 Column_2290 Column_2291 Column_2292 Column_2293 Column_2294 Column_2295 Column_2296 Column_2297 Column_2298 Column_2299 Column_2300 Column_2301 Column_2302 Column_2303 Column_2304 Column_2305 Column_2306 Column_2307 Column_2308 Column_2309 Column_2310 Column_2311 Column_2312 Column_2313 Column_2314 Column_2315 Column_2316 Column_2317 Column_2318 Column_2319 Column_2320 Column_2321 Column_2322 Column_2323 Column_2324 Column_2325 Column_2326 Column_2327 Column_2328 Column_2329 Column_2330 Column_2331 Column_2332 Column_2333 Column_2334 Column_2335 Column_2336 Column_2337 Column_2338 Column_2339 Column_2340 Column_2341 Column_2342 Column_2343 Column_2344 Column_2345 Column_2346 Column_2347 Column_2348 Column_2349 Column_2350 Column_2351 Column_2352 Column_2353 Column_2354 Column_2355 Column_2356 Column_2357 Column_2358 Column_2359 Column_2360 Column_2361 Column_2362 Column_2363 Column_2364 Column_2365 Column_2366 Column_2367 Column_2368 Column_2369 Column_2370 Column_2371 Column_2372 Column_2373 Column_2374 Column_2375 Column_2376 Column_2377 Column_2378 Column_2379 Column_2380 Column_2381 Column_2382 Column_2383 Column_2384 Column_2385 Column_2386 Column_2387 Column_2388 Column_2389 Column_2390 Column_2391 Column_2392 Column_2393 Column_2394 Column_2395 Column_2396 Column_2397 Column_2398 Column_2399 Column_2400 Column_2401 Column_2402 Column_2403 Column_2404 Column_2405 Column_2406 Column_2407 Column_2408 Column_2409 Column_2410 Column_2411 Column_2412 Column_2413 Column_2414 Column_2415 Column_2416 Column_2417 Column_2418 Column_2419 Column_2420 Column_2421 Column_2422 Column_2423 Column_2424 Column_2425 Column_2426 Column_2427 Column_2428 Column_2429 Column_2430 Column_2431 Column_2432 Column_2433 Column_2434 Column_2435 Column_2436 Column_2437 Column_2438 Column_2439 Column_2440 Column_2441 Column_2442 Column_2443 Column_2444 Column_2445 Column_2446 Column_2447 Column_2448 Column_2449 Column_2450 Column_2451 Column_2452 Column_2453 Column_2454 Column_2455 Column_2456 Column_2457 Column_2458 Column_2459 Column_2460 Column_2461 Column_2462 Column_2463 Column_2464 Column_2465 Column_2466 Column_2467 Column_2468 Column_2469 Column_2470 Column_2471 Column_2472 Column_2473 Column_2474 Column_2475 Column_2476 Column_2477 Column_2478 Column_2479 Column_2480 Column_2481 Column_2482 Column_2483 Column_2484 Column_2485 Column_2486 Column_2487 Column_2488 Column_2489 Column_2490 Column_2491 Column_2492 Column_2493 Column_2494 Column_2495 Column_2496 Column_2497 Column_2498 Column_2499 Column_2500 Column_2501 Column_2502 Column_2503 Column_2504 Column_2505 Column_2506 Column_2507 Column_2508 Column_2509 Column_2510 Column_2511 Column_2512 Column_2513 Column_2514 Column_2515 Column_2516 Column_2517 Column_2518 Column_2519 Column_2520 Column_2521 Column_2522 Column_2523 Column_2524 Column_2525 Column_2526 Column_2527 Column_2528 Column_2529 Column_2530 Column_2531 Column_2532 Column_2533 Column_2534 Column_2535 Column_2536 Column_2537 Column_2538 Column_2539 Column_2540 Column_2541 Column_2542 Column_2543 Column_2544 Column_2545 Column_2546 Column_2547 Column_2548 Column_2549 Column_2550 Column_2551 Column_2552 Column_2553 Column_2554 Column_2555 Column_2556 Column_2557 Column_2558 Column_2559 Column_2560 Column_2561 Column_2562 Column_2563 Column_2564 Column_2565 Column_2566 Column_2567
feature_infos=[86:99142088] [0.06714947521686554:7.9999914169311523] none none none none none [0.0016934167360886931:0.99586385488510132] [9.372096428705845e-06:0.19406601786613464] [3.5501589081832208e-06:0.1062769815325737] [0:0.11731192469596863] [0:0.19951923191547394] [0:0.064097627997398376] [0:0.077069655060768127] [0:0.60455399751663208] [0:0.74864226579666138] [0:0.084620013833045959] [0:0.06976744532585144] [0:0.060279872268438339] [0:0.067876450717449188] [0:0.049370896071195602] [0:0.21138709783554077] [0:0.11531556397676468] [0:0.23479890823364258] [0:0.49434188008308411] [0:0.058413665741682053] [0:0.049671519547700882] [0:0.073117338120937347] [0:0.043075684458017349] [0:0.16680306196212769] [0:0.1170479878783226] [0:0.16327826678752899] [0:0.16311943531036377] [0:0.21014387905597687] [0:0.072712421417236328] [0:0.038757357746362686] [0:0.069859407842159271] [0:0.071436770260334015] [0:0.052112430334091187] [0:0.27299702167510986] [0:0.046625398099422455] [0:0.4933377206325531] [0:0.053186751902103424] [0:0.11003072559833527] [0:0.29920339584350586] [0:0.077668085694313049] [0:0.045118693262338638] [0:0.059081580489873886] [0:0.044655416160821915] [0:0.067232899367809296] [0:0.041847407817840576] [0:0.052691660821437836] [0:0.047149810940027237] [0:0.057647310197353363] [0:0.091009356081485748] [0:0.10726594924926758] [0:0.071449637413024902] [0:0.076977603137493134] [0:0.098248660564422607] [0:0.048815619200468063] [0:0.042002011090517044] [0:0.085711546242237091] [0:0.043292682617902756] [0:0.066426143050193787] [0:0.06751888245344162] [0:0.038828842341899872] [0:0.044852033257484436] [0:0.074600279331207275] [0:0.05696902796626091] [0:0.069916307926177979] [0:0.11020877957344055] [0:0.071011260151863098] [0:0.21617551147937775] [0:0.067887231707572937] [0:0.056574393063783646] [0:0.061706230044364929] [5.325391157384729e-06:0.070556946098804474] [1.2910038549307501e-06:0.083235695958137512] [0:0.21629428863525391] [0:0.13227476179599762] [0:0.067193679511547089] [0:0.093620732426643372] [0:0.033894676715135574] [5.3289340939954855e-06:0.057069756090641022] [0:0.077512368559837341] [0:0.47104686498641968] [0:0.029283054172992706] [0:0.04062391072511673] [0:0.034342259168624878] [0:0.28808349370956421] [0:0.058883126825094223] [0:0.043336354196071625] [0:0.75532543659210205] [0:0.077820718288421631] [0:0.034024767577648163] [0:0.4968356192111969] [0:0.03508450835943222] [0:0.035759162157773972] [0:0.04010295495390892] [0:0.098663300275802612] [0:0.023633640259504318] [0:0.13525292277336121] [0:0.11019930988550186] [0:0.033166598528623581] [0:0.069460615515708923] [0:0.67991524934768677] [0:0.051671888679265976] [0:0.058255214244127274] [0:0.11633273214101791] [0:0.07096526026725769] [0:0.16678807139396667] [0:0.055861525237560272] [0:0.059212096035480499] [0:0.07802426815032959] [0:0.029806395992636681] [0:0.065431192517280579] [0:0.043574891984462738] [0:0.16718143224716187] [0:0.39604923129081726] [0:0.060645222663879395] [0:0.057237096130847931] [0:0.05711379274725914] [0:0.057257659733295441] [0:0.060882799327373505] [0:0.026007369160652161] [0:0.05631653219461441] [0:0.037758130580186844] [0:0.36432316899299622] [0:0.059046346694231033] [0:0.017786560580134392] [0:0.034309383481740952] [0:0.16692808270454407] [0:0.065795794129371643] [0:0.033699709922075272] [2.2314515035759541e-07:0.072230592370033264] [0:0.10041891038417816] [0:0.085864335298538208] [0:0.44640195369720459] [0:0.08247772604227066] [0:0.038016494363546371] [0:0.0463283471763134] [0:0.014943633228540421] [0:0.017992580309510231] [0:0.054509472101926804] [0:0.069165036082267761] [0:0.035214588046073914] [0:0.098345808684825897] [0:0.034180544316768646] [0:0.053663734346628189] [0:0.020338982343673706] [0:0.062299400568008423] [0:0.45216724276542664] [0:0.057605568319559097] [0:0.021108180284500122] [0:0.016845487058162689] [0:0.033647060394287109] [0:0.035536069422960281] [0:0.019151926040649414] [0:0.1306462287902832] [0:0.043898962438106537] [0:0.022717567160725594] [0:0.030540881678462029] [0:0.037659820169210434] [0:0.017241379246115685] [0:0.046123534440994263] [0:0.018175223842263222] [0:0.054774440824985504] [0:0.07937304675579071] [0:0.045890521258115768] [0:0.035560566931962967] [0:0.026955949142575264] [0:0.018368849530816078] [0:0.017751479521393776] [0:0.014462810009717941] [0:0.039167646318674088] [0:0.48833850026130676] [0:0.023660348728299141] [0:0.04196673259139061] [0:0.015483144670724869] [0:0.025096945464611053] [0:0.015445663593709469] [0:0.027897866442799568] [0:0.045661378651857376] [0:0.067294031381607056] [0:0.027985775843262672] [0:0.024783030152320862] [0:0.019287068396806717] [0:0.055840548127889633] [0:0.031071241945028305] [0:0.43694543838500977] [0:0.017464801669120789] [0:0.038434248417615891] [0:0.074771411716938019] [0:0.19863007962703705] [0:0.035585541278123856] [0:0.056946534663438797] [0:0.48924145102500916] [0:0.24618874490261078] [0:0.19688268005847931] [0:0.40479198098182678] [0:0.12644675374031067] [0:0.14468836784362793] [0:0.16984859108924866] [0:0.12833715975284576] [0:0.071140795946121216] [0:0.056467317044734955] [0:0.47020986676216125] [0:0.050290964543819427] [0:0.037376437336206436] [0:0.018457015976309776] [0:0.027888065204024315] [0:0.32621622085571289] [0:0.47155597805976868] [0:0.029686618596315384] [0:0.030258830636739731] [0:0.25685131549835205] [0:0.089739032089710236] [0:0.029798451811075211] [0:0.41097033023834229] [0:0.28785312175750732] [0:0.038434248417615891] [0:0.020566489547491074] [0:0.01797204278409481] [0:0.025428127497434616] [0:0.029314374551177025] [0:0.024112381041049957] [0:0.19842787086963654] [0:0.028797721490263939] [0:0.028642762452363968] [0:0.015313785523176193] [0:0.038033224642276764] [0:0.060893449932336807] [0:0.069567233324050903] [0:0.048525098711252213] [0:0.068878538906574249] [0:0.027468252927064896] [0:0.12838807702064514] [0:0.03970891609787941] [0:0.046394534409046173] [0:0.089423991739749908] [0:0.029195183888077736] [0:0.095613159239292145] [0:0.038586549460887909] [0:0.04600345715880394] [0:0.026418363675475121] [0:0.045100659132003784] [0:0.19667237997055054] [0:0.067770898342132568] [0:0.039605885744094849] [0:0.086309894919395447] [0:0.060501553118228912] [0:0.08579719066619873] [0:0.16680140793323517] [0:0.06811966747045517] [0:0.094955071806907654] [0:0.06489294022321701] [0:0.080109149217605591] [0:0.026638258248567581] [0:0.029718182981014252] [0:0.031604517251253128] [0:0.040837898850440979] [0:0.041747525334358215] [0:0.94443559646606445] [0:0.99560546875] [0:0.54545456171035767] [0:0.48730963468551636] [0:0.043478261679410934] [0:0.46116504073143005] [0:0.75] [0:0.6690140962600708] [0:0.35820895433425903] [0:0.43835616111755371] [0:0.4444444477558136] [0:0.48241207003593445] [0:0.47979798913002014] [0:0.46601942181587219] [0:0.40254238247871399] [0:0.0013062144862487912] [0:0.94284319877624512] [0:0.85135138034820557] [0:0.040540538728237152] [0:0.12790697813034058] [0:0.056405641138553619] [0:0.058139536529779434] [0:0.072368420660495758] [0:0.13953489065170288] [0:0.13953489065170288] [0:0.078947365283966064] [0:0.027027027681469917] [0:0.020270269364118576] [0:0.039473682641983032] [0:0.066666670143604279] [0:0.020270269364118576] [0:0.046052630990743637] [0:0.033286791294813156] [0:0.890625] [0:0.076923079788684845] [0:0.090527340769767761] [0:0.0915069580078125] [0:0.13821138441562653] [0:0.10000000149011612] [0:0.088942304253578186] [0:0.057692307978868484] [0:0.11063829809427261] [0:0.059829059988260269] [0:0.045045044273138046] [0:0.076923079788684845] [0:0.08510638028383255] [0:0.064102567732334137] [0:0.059574469923973083] [0:0.071129709482192993] [0:0.87780898809432983] [0:0.12759885191917419] [0:0.13719512522220612] [0:0.34088897705078125] [0:0.20102310180664062] [0:0.10000000149011612] [0:0.16463415324687958] [0:0.11280487477779388] [0:0.08917197585105896] [0:0.065517239272594452] [0:0.059829059988260269] [0:0.068376071751117706] [0:0.067729085683822632] [0:0.060509555041790009] [0:0.074576273560523987] [0:0.18085937201976776] [0:0.86137819290161133] [0:0.049095608294010162] [0:0.29080119729042053] [0:0.10276679694652557] [0:0.33003953099250793] [0:0.11660078912973404] [0:0.15281899273395538] [0:0.096837945282459259] [0:0.057208236306905746] [0:0.076517149806022644] [0:0.046511627733707428] [0:0.045766592025756836] [0:0.058047492057085037] [0:0.06976744532585144] [0:0.083333335816860199] [0:0.063324540853500366] [0:0.81868487596511841] [0:0.060796644538640976] [0:0.082743324339389801] [0:0.078651688992977142] [0:0.073868900537490845] [0:0.075394101440906525] [0:0.17696629464626312] [0:0.094262294471263885] [0:0.075471699237823486] [0:0.058700211346149445] [0:0.058700211346149445] [0:0.060796644538640976] [0:0.079999998211860657] [0:0.079999998211860657] [0:0.062893085181713104] [0:0.11666357517242432] [0:0.7734375] [0:0.0705915167927742] [0:0.075336746871471405] [0:0.19636315107345581] [0:0.10076335817575455] [0:0.0696096271276474] [0:0.21982564032077789] [0:0.13044433295726776] [0:0.071428574621677399] [0:0.051878355443477631] [0:0.078767120838165283] [0:0.059931505471467972] [0:0.067796610295772552] [0:0.059800665825605392] [0:0.058219179511070251] [0:0.10809685289859772] [0:0.74072265625] [0:0.11672291904687881] [0:0.099522292613983154] [0:0.11924641579389572] [0:0.08451562374830246] [0:0.08172200620174408] [0:0.22156055271625519] [0:0.1281467080116272] [0:0.070588238537311554] [0:0.05000000074505806] [0:0.058823529630899429] [0:0.053468208760023117] [0:0.058823529630899429] [0:0.057352941483259201] [0:0.055882353335618973] [0:0.084849916398525238] [0:0.685302734375] [0:0.10613207519054413] [0:0.26668596267700195] [0:0.20646078884601593] [0:0.25727221369743347] [0:0.24819204211235046] [0:0.39083784818649292] [0:0.16344901919364929] [0:0.09326171875] [0:0.076562501490116119] [0:0.067241378128528595] [0:0.17838460206985474] [0:0.081933595240116119] [0:0.24903510510921478] [0:0.14331209659576416] [0:0.1471082866191864] [0:0.6259765625] [0:0.20932681858539581] [0:0.16709786653518677] [0:0.16265596449375153] [0:0.19147661328315735] [0:0.1758916974067688] [0:0.370361328125] [0:0.1913248747587204] [0:0.14762301743030548] [0:0.081007048487663269] [0:0.16129031777381897] [0:0.28519731760025024] [0:0.26267281174659729] [0:0.070960700511932373] [0:0.14415042102336884] [0:0.15738138556480408] [0:0.591796875] [0:0.11880813539028168] [0:0.11189515888690948] [0:0.125732421875] [0:0.1380440890789032] [0:0.12841796875] [0:0.30810546875] [0:0.16259765625] [0:0.099342584609985352] [0:0.086977541446685791] [0:0.14892578125] [0:0.30567169189453125] [0:0.24560546875] [0:0.0557725690305233] [0:0.1529083251953125] [0:0.16611328721046448] [0:0.50244140625] [0:0.11141429096460342] [0:0.12451171875] [0:0.120361328125] [0:0.20726647973060608] [0:0.068598322570323944] [0:0.147216796875] [0:0.074150726199150085] [0:0.13287353515625] [0:0.06107306107878685] [0:0.0810546875] [0:0.06071428582072258] [0:0.16094970703125] [0:0.053507782518863678] [0:0.17223826050758362] [0:0.1339518278837204] [0:0.439208984375] [0:0.12939453125] [0:0.14892578125] [0:0.133056640625] [0:0.13563121855258942] [0:0.06201171875] [0:0.14208984375] [0:0.08544921875] [0:0.19189453125] [0:0.08544921875] [0:0.088014416396617889] [0:0.063194863498210907] [0:0.109375] [0:0.12841796875] [0:0.2440049946308136] [0:0.13568459451198578] [0:0.30224609375] [0:0.1611328125] [0:0.16693115234375] [0:0.072564020752906799] [0:0.17089703679084778] [0:0.097412109375] [0:0.134521484375] [0:0.0943603515625] [0:0.1750081330537796] [0:0.082222491502761841] [0:0.08520854264497757] [0:0.075976565480232239] [0:0.1053466796875] [0:0.0587022565305233] [0:0.2164459228515625] [0:0.1384393572807312] [0:0.23131214082241058] [0:0.089064918458461761] [0:0.08416912704706192] [0:0.14002369344234467] [0:0.14700604975223541] [0:0.058524478226900101] [0:0.11231788247823715] [0:0.10218394547700882] [0:0.11810442060232162] [0:0.1005074605345726] [0:0.064260773360729218] [0:0.14748057723045349] [0:0.09316127747297287] [0:0.071708798408508301] [0:0.084004722535610199] [0:0.14278469979763031] [0:0.1841634064912796] [0:0.096781082451343536] [0:0.1036376953125] [0:0.14034213125705719] [0:0.13970856368541718] [0:0.10776857286691666] [0:0.089427806437015533] [0:0.087818287312984467] [0:0.10281857848167419] [0:0.066731773316860199] [0:0.077151909470558167] [0:0.13822121918201447] [0:0.07421875] [0:0.077015683054924011] [0:0.082356773316860199] [0:0.10504034161567688] [0:1702277] [0:2355.53515625] [0:28723616] [0:0.77310925722122192] [0:0.22577610611915588] [0:0.8269534707069397] [0:0.2329038679599762] [0:0.34285715222358704] [0:0.78770864009857178] [0:0.20000000298023224] [0:0.20000000298023224] [0:0.48635756969451904] [0:0.090909093618392944] [0:0.20000000298023224] [0:0.20000000298023224] [0:0.1177360936999321] [0:0.20000000298023224] [0:0.20000000298023224] [0:0.28571429848670959] [0:0.34295612573623657] [0:0.20000000298023224] [0:0.10848768800497055] [0:0.25944766402244568] [0:0.20000000298023224] [0:0.17805227637290955] [0:0.10000000149011612] [0:0.20000000298023224] [0:0.20000000298023224] [0:0.29843059182167053] [0:0.27272728085517883] [0:0.1666666716337204] [0:0.19159358739852905] [0:0.11389581114053726] [0:0.49116998910903931] [0:0.69427967071533203] [0:0.56521737575531006] [0:0.48709553480148315] [0:0.20000000298023224] [0:0.20000000298023224] [0:0.28178131580352783] [0:0.20000000298023224] [0:0.20000000298023224] [0:0.48707446455955505] [0:0.3333333432674408] [0:0.190476194024086] [0:0.1666666716337204] [0:0.20000000298023224] [0:0.21015667915344238] [0:0.33257254958152771] [0:0.84196949005126953] [0:0.43140539526939392] [0:0.20000000298023224] [0:0.1666666716337204] [0:0.78182858228683472] [0:0.20000000298023224] [0:0.11184210330247879] [0:0.99205493927001953] [0:0.20000000298023224] [0:0.20000000298023224] [0:0.94961851835250854] [0:0.20000000298023224] [0:0.33952802419662476] [0:0.20000000298023224] [0:0.24581447243690491] [0:0.20000000298023224] [0:0.25647863745689392] [0:0.38286405801773071] [0:0.36649513244628906] [0:0.1666666716337204] [0:0.94459539651870728] [0:0.1875] [0:0.20000000298023224] [0:0.40000000596046448] [0:0.76594913005828857] [0:0.32206037640571594] [0:0.27272728085517883] [0:0.20000000298023224] [0:0.3125] [0:0.10000000149011612] [0:0.3125] [0:0.17779166996479034] [0:0.32282334566116333] [0:0.71431678533554077] [0:0.33440229296684265] [0:0.1666666716337204] [0:0.20000000298023224] [0:0.1666666716337204] [0:0.28571429848670959] [0:0.1581311821937561] [0:0.18225687742233276] [0:0.10909090936183929] [0:0.75029772520065308] [0:0.21357285976409912] [0:0.1666666716337204] [0:0.3333333432674408] [0:0.32197344303131104] [0:0.27272728085517883] [0:0.13333334028720856] [0:0.18097259104251862] [0:6.5848746299743652] [0:4298] none none [0:18] [0:110] [0:2570] [0:126] [0:7002] [0:13844] [0:78] none none none [0:417] none [0:33359] [0:17498] [0:3566] [0:532] [0:7135] [0:17306] [0:803] [0:13134] [0:15031] [0:23736] [0:5137] [0:25664] [0:1338] [0:1533] [0:3676] none [0:1906] [0:414] [0:4109] [0:18588] [0:4261] [0:5833] [0:3347] [0:43174] [0:123] [0:33] [0:8254] [0:672] [0:4119] [0:3539] [0:9566] [0:4178] [0:7076] [0:2060] [0:9203] [0:2386] [0:2879] [0:1786] [0:414] [0:5454] [0:33157] [0:12003] [0:1018] [0:979] [0:33] [0:74] [0:640] [0:4683] none [0:4383] [0:20101] [0:2776] [0:30905] [0:1017] [0:2952] [0:39394] [0:4929] [0:10867] [0:8338] [0:61] [0:11000] [0:6326] none none none none none none none none none none none none none none none none none none none none none none none none none none none none none none none none none none none none none none none none none none none none none none none none none none none none none none none none none none none none none none none none none none none none none none none none none none none none none none none none none none none none none none none none none none none none none none none none none none none none none none none none none none none none none none none none none none none none none none none none none none none none none none none none none none none none none none none none none none none none none none none none none none none none none none none none none none none none none none none none none none none none none none none none none none none none none none none none none none none none none none none none none none none none none none none none none none none none none none none none none none none none none none none none none none none none none none none none none none none none none none none none none none none none none none none none none none none none none none none none none none none none none none none none none none none none none none none none none none none none none none none none none none none none none none none none none none none none none none none none none none none none none none none none none none none none none none none none none none none none none none none none none none none none none none none none none none none none none none none none none none none none none none none none none none none none none none none none none none none none none none none none none none none none none none none none none none none none none none none none none none none none none none none none none none none none none none none none none none none none none none none none none none none none none none none none none none none none none none none none none none none none none none none none none none none none none none none none none none none none none none none none none none none none none none none none none none none none none none none none none none none none none none none none none none none none none none none none none none none none none none none none none none none none none none none none none none none none none none none none none none none none none none none none none none none none none none none none none none none none none none none none none none none none none none none none none none none none none none none none none none none none none none none none none none none none none none none none none none none none none none none none none none none none none none none none none none none none none none none none none none none none none none none none none none none none none none none none none none none none none none none none none none none none none none none none none none none none none none none none none none none none none none none none none none none none none none none none none none none none none none none none none none none none none none none none none none none none none none none none none none none none none none none none none none none none none none none none none none none none none none none none none none none none none none none none none none none none none none none none none none none none none none none none none none none none none none none none none none none none none none none none none none none none none none none none none none none none none none none none none none none none none none none none none none none none none none none none none none none none none none none none none none none none none none none none none none none none none none none none none none none none none none none none none none none none none none none none none none none none none none none none none none none none none none none none none none none none none none none none none none none none none none none none none none none none none none none none none none none none none none none none none none none none none none none none none none none none none none none none none none none none none none none none none none none none none none none none none none none none none none none none none none none none none none none none none none none none none none none none none none none none none none none none none none none none none none none none none none none none none none none none none none none none none none none none none none none none none none none none none none none none none none none none none none none none none none none none none none none none none none none none none none none none none none none none none none none none none none none none none none none none none none none none none none none none none none none none none none none none none none none none none none none none none none none none none none none none none none none none none none none none none none none none none none none none none none none none none none none none none none none none none none none none none none none none none none none none none none none none none none none none none none none none none none none none none none none none none none none none none none none none none none none none none none none none none none none none none none none none none none none none none none none none none none none none none none none none none none none none none none none none none none none none none none none none none none none none none none none none none none none none none none none none none none none none none none none none none none none none none none none none none none none none none none none none none none none none none none none none none none none none none none none none none none none none none none none none none none none none none none none none none none none none none none none none none none none none none none none none none none none none none none none none none none none none none none none none none none none none none none none none none none none none none none none none none none none none none none none none none none none none none none none none none none none none none none none none none none none none none none none none none none none none none none none none none none none none none none none none none none none none none none none none none none none none none none none none none none none none none none none none none none none none none none none none none none none none none none none none none none none none none none none none none none none none none none none none none none none none none none none none none none none none none none none none none none none none none none none none none none none none none none none none none none none none none none none none none none none none none none none none none none none none none none none none none none none none none none none none none none none none none none none none none none none none none none none none none none none none none none none none none none none none none none none none none none none none none none none none none none none none none none none none none none none none none none none none none none none none none none none none none none none none none none none none none none none none none none none none none none none none none none none none none none none none none none none none none none none none none none none none none none none none none none none none none none none none none none none none none none none none none none none none none none none none none none none none none none none none none none none none none none none none none none none none none none none none none none none none none none none none none none none none none none none none none none none none none none none none none none none none none none none none none none none none none none none none none none none none none none none none none none none none none none none none none none none none none none none none none none none none none none none none none none none none none none none none none none none none none none none none none none none none none none none none none none none none none none none none none none none none none none none none none none none none none none none none none none none none none none none none none none none none none none none none none none none none none none none none none none none none none none none none none none none none none none none none none none none none none none none none none none none none none none none none none none none none none none none none none none none none none none none none none none none none none none none none none none none none none none none none none none none none none none none none none none none none none none none none none none none none none none none none none none none none none none none none none none none none none none none none none none none none none none none none none none none none none none none none none none none none none none none none none none none none none none none none none none none none none none none none none none none none none none none none none none none none none none none none none none none none none none none none none none none none
tree_sizes=7025 7049 7052 7037 7064 7058 7081 7069 7065 7057 7063 7067 7120 7101 7086 7084 7089 7119 7095 7102 7088 7096 7086 7119 7072 7088 7122 7125 7088 7135 7120 7097 7108 7123 7102 7120 7144 7119 7130 7143 7140 7126 7103 7148 7100 7154 7142 7136 7105 7146 7144 7145 7125 7147 7127 7114 7121 7141 7159 7157 7138 7162 7161 7168 7142 7142 7153 7150 7172 7148 7134 7139 7145 7127 7146 7155 7158 7155 7151 7151 7152 7170 7146 7143 7155 7170 7159 7180 7151 7166 7185 7190 7165 7166 7173 7160 7164 7196 7194 7174 7218 7170 7211 7197 7215 7217 7211 7204 7221 7224 7224 7247 7207 7209 7242 7221 7239 7271 7244 7255 7245 7235 7247 7225 7239 7252 7249 7246 7245 7274 7239 7232 7281 7256 7261 7273 7259 7245 7267 7273 7253 7233 7282 7260 7259 7285 7273 7267 7251 7271 7293 7264 7299 7286 7267 7296 7275 7291 7272 7268 7255 7281 7292 7282 7268 7291 7314 7334 7299 7330 7289 7310 7325 7327 7317 7296 7313 7310 7336 7327 7326 7337 7345 7325 7326 7316 7346 7329 7336 7325 7327 7361 7368 7334 7331 7351 7363 7380 7328 7361 7355 7343 7349 7381 7396 7343 7360 7376 7353 7360 7341 7379 7362 7378 7355 7353 7370 7373 7373 7396 7389 7412 7358 7394 7411 7413 7410 7402 7391 7418 7397 7397 7382 7405 7408 7384 7388 7412 7390 7425 7426 7413 7406 7411 7417 7399 7413 7406 7404 7442 7406 7402 7458 7415 7435 7443 7430 7416 7440 7430 7452 7442 7442 7444 7429 7444 7447 7429 7411 7433 7437 7449 7427 7446 7449 7457 7437 7447 7447 7470 7463 7461 7437 7441 7483 7429 7480 7458 7450 7472 7464 7454 7472 7486 7483 7452 7470 7449 7505 7467 7449 7479 7466 7483 7478 7486 7480 7507 7490 7477 7497 7507 7489 7478 7491 7483 7462 7521 7516 7512 7518 7513 7497 7473 7516 7489 7518 7517 7509 7517 7497 7524 7525 7492 7516 7504 7520 7531 7508 7513 7488 7532 7550 7539 7526 7542 7481 7514 7509 7521 7516 7515 7511 7520 7515 7521 7547 7547 7501 7517 7524 7564 7507 7540 7551 7515 7546 7567 7526 7558 7534 7527 7561 7548 7533 7569 7530 7555 7573 7587 7545 7539 7589 7537 7569 7545 7564 7603 7584 7546 7525 7598 7576 7567 7561 7571 7556 7550 7566 7576 7583 7554 7584 7595 7563 7558 7589 7567 7570 7586 7554 7595 7589 7588 7588 7573 7597 7597 7562 7585 7580 7594 7583 7593 7609 7563 7581 7566 7589 7600 7595 7601 7572 7586 7591 7608 7608 7579 7596 7594 7593 7594 7575 7603 7606 7610 7621 7616 7588 7630 7617 7614 7581 7595 7630 7619 7600 7624 7604 7618 7597 7631 7613 7642 7605 7601 7612 7600 7604 7607 7615 7635 7624 7596 7638 7644 7613 7595 7631 7622 7607 7655 7618 7643 7628 7638 7613 7640 7623 7657 7627 7617 7621 7606 7642 7642 7645 7624 7594 7601

Tree=0
num_leaves=64
num_cat=0
split_feature=537 520 641 71 561 585 338 206 627 624 177 653 624 206 0 668 532 652 521 319 536 596 694 641 554 522 206 415 603 436 618 28 401 653 561 188 653 115 312 642 544 59 550 623 653 561 41 0 262 63 639 605 521 77 641 576 16 585 561 520 7 624 362
split_gain=5534.09 2838.84 1270.67 1008.32 787.021 526.423 509.278 478.97 462.054 277.84 277.616 233.46 224.747 183.922 182.147 171.182 149.058 154.627 127.537 90.8314 83.7785 82.6537 77.1963 90.2578 69.336 65.9652 53.1464 78.4251 51.4412 51.3685 48.5388 48.3202 46.0256 43.9449 43.1573 41.4693 36.2417 34.2601 30.1615 29.4605 36.4086 26.7349 23.4458 28.9114 92.5919 23.0033 22.8041 17.4955 17.311 16.9898 16.2916 15.2861 14.7605 10.9798 9.91598 7.96167 7.28788 5.5452 4.82094 4.70952 4.34956 2.98564 1.18033
threshold=0.0087486123666167277 9.903691768646242 1.5000000000000002 0.0032531510805711155 0.01542442897334695 0.0033385943388566379 6.9354400693555371e-06 0.0051152179948985585 1.0000000180025095e-35 4.5000000000000009 0.0048941643908619889 19.500000000000004 1.0000000180025095e-35 0.0041818374302238235 15976.000000000002 1.0000000180025095e-35 0.0065240685362368831 5.5000000000000009 307.50000000000006 1.2067170587215517e-06 0.033731250092387206 0.013669357635080816 1.0000000180025095e-35 50.500000000000007 0.001137918094173074 0.039893964305520065 0.0055625534150749454 0.00011191614976269194 0.0019400217570364477 0.00063149892957881104 6.5587852001190194 0.0023676656419411306 1.2106326039429407e-06 1.0000000180025095e-35 0.011819554958492519 0.00063703101477585744 14.500000000000002 0.0050979235675185927 0.00029168119363021111 258.50000000000006 0.0021289808209985499 0.0022588570136576895 0.006088071735575796 1.5000000000000002 2.5000000000000004 0.0058062674943357715 0.0047993373591452846 266124.00000000006 0.012722059618681671 0.0042972201481461534 5.5000000000000009 0.054886661469936378 29618.500000000004 0.0070167984813451776 27.500000000000004 0.0075876417104154834 0.00045424554264172917 0.0050514864269644031 0.0031883835326880221 10.789222240448 0.34408286213874822 2.5000000000000004 0.001400764216668904
decision_type=2 2 2 2 2 2 2 2 2 2 2 2 2 2 2 2 2 2 2 2 2 2 2 2 2 2 2 2 2 2 2 2 2 2 2 2 2 2 2 2 2 2 2 2 2 2 2 2 2 2 2 2 2 2 2 2 2 2 2 2 2 2 2
left_child=1 6 3 7 5 28 20 25 52 16 14 15 24 36 18 29 21 -18 -5 -8 32 26 23 -15 -6 45 34 -28 -3 41 33 54 60 38 42 -34 -11 -33 47 -13 -41 -10 43 46 -45 -2 56 51 -48 -49 -29 53 -4 62 -17 -21 -7 -58 -38 -59 -1 -61 -16
right_child=2 4 8 10 12 9 19 -9 11 13 -12 39 -14 22 30 31 17 -19 -20 55 -22 -23 -24 -25 -26 -27 27 50 -30 -31 -32 37 35 -35 -36 -37 58 -39 -40 40 -42 -43 -44 44 -46 -47 48 49 -50 -51 -52 -53 -54 -55 -56 -57 57 59 -60 61 -62 -63 -64
leaf_value=0.19766757357061582 -0.18600027355839632 0.0013077604487624333 -0.1148120092982203 0.17603700541257228 -0.18054610090743325 -0.13572995799223259 0.038810092595845121 0.18203171985480238 -0.039269068876548123 -0.044205396682523081 -0.066048839472447288 -0.1882082472264823 0.18738670960112758 0.098712960835841634 0.19987010790522708 0.18535694651466164 -0.15765107629355049 0.16538488149835498 -0.08978919420570125 -0.18744426056589006 -0.0082158595476411415 -0.040315917900612959 0.19145773893638063 -0.13601198946793025 0.047471906130182588 0.0046398039667349331 0.047471906130182588 -0.17790749990888916 0.17668732385160338 -0.14344005320263498 0.078785426861342642 -0.016579282573659058 0.1636778182502755 0.059504557683459879 -0.081748184221602765 0.001307534282983128 -0.12649992703368559 0.13842475830626227 0.079430226276504659 -0.14101573709354617 0.010396821820982107 0.094679373763225771 -0.10517511267893183 0.029882667111706354 -0.19191142430979172 -0.093273088840765711 -0.17190925043907959 0.070560332976620607 -0.0525281003620457 0.17642932172835019 -0.090768829211918062 0.11328810206546441 -0.19079487934626582 0.13377305694492675 0.10932191667992014 -0.10661352203018601 -0.13513022272759417 -0.13323825628379704 -0.19034705893920031 -0.19136234475512426 0.13985151378745003 -0.15098668743649976 0.15525483225065959
leaf_weight=316.00384458899498 102.66159860789776 25.520647332072258 40.802646353840828 30.502411067485809 26.792120918631554 38.803458020091057 39.025500610470772 66.004413679242134 33.532797411084175 35.285227328538895 46.550616696476936 28.044956341385841 91.504396960139275 37.014967307448387 1386.7571943253279 98.505607903003693 30.795359715819359 26.75322388112545 41.298999428749084 35.055891543626785 25.271457850933075 48.297374129295349 29.000386163592339 27.788473665714264 25.015380352735519 29.023076102137566 25.015380352735519 66.853276491165161 47.504020631313324 28.039689034223557 42.270636349916458 29.776317030191422 38.755241900682449 26.514974191784859 47.805072829127312 26.021052181720734 29.539688050746918 26.006060615181923 25.262138769030571 30.292523801326752 32.024694845080376 25.260518059134483 45.056290164589882 27.01862046122551 59.345177859067917 40.798999756574631 25.288880482316017 25.012949287891388 25.025914967060089 47.00402095913887 37.044140085577965 26.258896693587303 115.18346999585629 34.50889128446579 27.259706392884254 27.284422218799591 30.542118459939957 25.034423694014549 47.826547235250473 1503.1383475959301 25.005656093358994 41.059129029512405 25.004035383462906
leaf_count=1264 410 102 163 122 107 155 156 264 134 141 186 112 366 148 5547 394 123 107 165 140 101 193 116 111 100 116 100 267 190 112 169 119 155 106 191 104 118 104 101 121 128 101 180 108 237 163 101 100 100 188 148 105 460 138 109 109 122 100 191 6003 100 164 100
internal_value=0.00161943 -0.0889676 0.111354 0.147474 -0.1332 -0.146893 0.120716 -0.0452984 -0.0286857 -0.155259 0.173653 0.033846 0.0938807 -0.0442918 0.180213 0.0806168 -0.166126 -0.00724575 0.0239827 -0.0803375 0.168076 -0.17059 0.0588326 -0.0025018 -0.0716637 -0.132829 -0.173718 -0.11002 0.116219 -0.0345933 0.187041 0.135617 0.179052 0.189857 -0.178052 0.0994395 -0.12991 0.0568211 0.192021 -0.10441 -0.0642954 0.0188757 -0.180534 -0.182385 -0.122995 -0.160469 -0.185346 0.193811 -0.114743 0.141107 -0.148016 0.196292 -0.171788 0.197721 0.169856 -0.154334 -0.187442 -0.18861 -0.167915 -0.189563 0.193845 -0.190388 0.199189
internal_weight=0 3058.09 2510.16 1995.43 2525.67 2382.36 532.423 238.488 514.729 2309.33 1756.95 358.743 143.312 206.455 1710.4 268.381 2102.88 57.5486 71.8014 101.366 431.057 2045.33 93.8038 64.8034 51.8075 172.484 1997.03 128.913 73.0247 86.833 1638.59 181.548 405.786 1596.32 1868.12 64.7763 112.651 55.7824 1569.81 90.3622 62.3172 58.7933 1820.31 1775.26 86.3638 143.461 1688.89 1544.55 50.3148 72.017 103.897 1472.53 155.986 1446.27 125.765 62.3403 1638.58 1599.77 77.3662 1569.23 341.01 1544.2 1411.76
internal_count=22255 12218 10037 7980 10089 9516 2129 953 2057 9224 7027 1434 573 825 6841 1073 8399 230 287 405 1724 8169 375 259 207 689 7976 515 292 347 6554 726 1623 6385 7461 259 450 223 6279 361 249 235 7270 7090 345 573 6745 6178 201 288 415 5890 623 5785 503 249 6544 6389 309 6267 1364 6167 5647
is_linear=0
shrinkage=1


Tree=1
num_leaves=64
num_cat=0
split_feature=537 520 653 7 624 321 328 260 201 532 623 585 312 249 544 623 232 8 684 548 548 0 375 392 264 642 623 536 13 319 338 263 229 561 554 668 400 520 77 232 557 591 625 576 206 43 605 296 42 548 479 1 605 422 579 230 642 587 415 140 626 587 381
split_gain=4554.73 2474.66 928.224 847.332 716.604 847.447 438.636 370.52 278.2 256.725 215.868 157.046 138.789 127.223 108.468 101.742 115.852 84.3877 78.4477 81.7601 68.1786 66.6404 68.3028 65.2546 64.8661 63.0067 62.4545 58.5007 57.8763 57.2547 50.6016 48.3319 38.8535 38.6768 87.1496 33.4354 29.5552 27.3071 25.6017 24.455 23.7722 22.2239 20.0906 17.5574 16.2506 15.8417 14.4965 16.3176 12.2656 10.6479 19.5172 10.9616 8.82147 8.53073 8.01368 7.30318 7.10314 5.56382 4.88172 4.10568 2.55939 2.1068 2.02166
threshold=0.0094174640253186243 9.903691768646242 1.0000000180025095e-35 0.38345874845981603 1.0000000180025095e-35 1.0000000180025095e-35 4.8873987452680021e-06 0.0042721324134618053 0.0018254936439916494 0.0060035628266632566 1.0000000180025095e-35 0.0088500352576375025 0.00028597927303053444 0.0018577680457383396 0.0020974742947146301 1.0000000180025095e-35 0.00032031728187575942 0.016764443367719654 3.5000000000000004 0.009123550262302162 0.023016022518277172 266124.00000000006 0.049485305324196822 5.1002064083149898e-06 1.6901029766813738e-06 747.50000000000011 2.5000000000000004 0.031468128785490997 0.0064711023587733516 1.2067170587215517e-06 1.0000000180025095e-35 0.087295096367597594 0.0027214863803237681 0.012341251596808435 0.0032607588218525056 1.0000000180025095e-35 5.7717750223673656e-06 14.145539283752443 0.0070167984813451776 0.0002586583723314107 0.0061969098169356593 0.047285560518503196 1.0000000180025095e-35 0.0022593269823119049 0.002613791730254889 0.0013940386124886575 0.04007989168167115 2.2330760657496288e-05 0.0056837962474673995 0.011030425783246757 0.019915383309125904 2.1053698062896733 0.054886661469936378 0.0014650999219156804 0.0010195412323810162 0.0006069461232982577 37.500000000000007 0.051536926999688155 6.1177099269116311e-05 0.00052030305960215639 1.0000000180025095e-35 0.045403836295008666 0.0043705990538001069
decision_type=2 2 2 2 2 2 2 2 2 2 2 2 2 2 2 2 2 2 2 2 2 2 2 2 2 2 2 2 2 2 2 2 2 2 2 2 2 2 2 2 2 2 2 2 2 2 2 2 2 2 2 2 2 2 2 2 2 2 2 2 2 2 2
left_child=1 6 3 7 15 18 27 12 11 26 31 -7 21 24 -11 20 -17 29 19 -6 32 22 38 -9 35 41 44 36 43 -8 42 59 33 48 -35 -10 -1 -18 45 -12 -30 -13 -23 -16 61 -2 -43 -48 49 51 -51 -3 57 -37 -19 -39 -53 -47 -59 -5 -42 -4 -20
right_child=2 4 9 10 5 8 17 23 13 14 39 25 -14 -15 28 16 37 54 62 -21 -22 30 -24 -25 -26 -27 -28 -29 40 -31 -32 -33 -34 34 -36 53 -38 55 -40 -41 60 46 -44 -45 -46 52 47 -49 -50 50 -52 56 -54 -55 -56 -57 -58 58 -60 -61 -62 -63 -64
leaf_value=0.175679455001296 0.095273549734606597 -0.11097296851925556 -0.13752793469130828 -0.18581848141945012 -0.090710955126230342 0.088116976776577649 0.10957783446317709 0.03647194381363808 0.0063567315479525575 -0.12733771693229903 0.1562356167741995 -0.082680533697281164 -0.032897165589388641 -0.1382494978176434 0.04948394674669615 0.12051224256224846 -0.031379082891103943 -0.09146152677808192 0.13544094351997735 0.14431641068143972 -0.0013245014392455302 0.05947286999442284 0.010792069528213336 -0.14829372823891845 -0.073146349772323455 -0.00055359480537487272 0.00037251256038187396 0.010025850748041324 0.041711411217389915 -0.070376039658804498 0.010783190640028507 -0.02728423381175922 -0.040668843814296696 -0.17119276175297371 0.05475346242649002 0.089400367182540505 0.084637458104786081 -0.10030685018385932 0.090311990696317471 0.022798400652156624 0.12599393090225014 -0.17937855170606659 0.16625666821271162 -0.063489570155343442 -0.079912964940755449 0.1796886577875664 -0.058851313958528696 -0.15881965660863068 -0.096692937662326187 -0.1787639254352579 -0.059289221326193575 -0.17793331183547259 0.11183680381590022 0.16899209557204581 -0.17352892143260668 -0.17647066650003773 -0.12501675931306874 0.1671596691547069 0.099688374810874558 -0.13124020653495058 0.18013500325045215 -0.18067751326178233 0.18425014032975789
leaf_weight=370.06982812285423 27.826820820569992 32.337176755070686 37.098498806357384 70.708446472883224 26.381376564502716 28.103954434394836 35.197960704565048 34.423018231987953 25.633510917425156 30.137684896588326 29.617304220795631 35.317185625433922 35.922371566295624 40.058762952685356 27.701855063438416 24.932564973831177 27.150366336107254 24.938146516680717 25.366931945085526 31.333505153656006 25.378595277667046 25.432080462574959 26.366667538881302 41.094141811132431 25.640892848372459 25.576874122023582 32.095487147569656 25.493924498558044 25.45372311770916 33.616941407322884 45.558598339557648 31.387804716825485 24.873715966939926 50.324679210782051 24.984667211771011 25.861212715506554 42.573540911078453 24.873649850487709 39.348339915275574 25.626494914293289 30.913270264863968 310.5138263553381 70.418277248740196 25.425126329064369 27.915516257286072 1395.4773124009371 25.881332620978355 52.79008474946022 25.373342916369438 31.065749511122704 26.363546147942543 1341.5212977528572 26.661864414811134 42.001947820186615 33.376827642321587 44.230966255068779 36.519500955939293 34.431901007890701 25.046468004584312 33.631249159574509 35.554134145379066 86.22112087905407 114.20033477246761
leaf_count=1494 112 130 149 284 106 113 141 138 103 121 119 142 144 161 111 100 109 100 102 126 102 102 106 165 103 103 129 102 102 135 183 126 100 202 100 104 171 100 158 103 124 1250 283 102 112 5636 104 212 102 125 106 5402 107 169 134 178 147 139 101 135 143 347 460
internal_value=0 -0.0792425 0.1042 0.130521 -0.120836 -0.0445931 0.110081 0.151455 -0.100636 -0.0439767 -0.0696088 -0.138687 0.160801 0.0138122 0.0424923 -0.157364 -0.068218 -0.0531291 0.136065 0.0371706 -0.163992 0.164871 0.170814 -0.064696 0.0656665 -0.153014 -0.126386 0.157452 0.0784094 0.0219193 0.0979419 -0.137159 -0.166581 -0.16855 -0.0964975 0.104106 0.166514 -0.117841 0.173529 0.0958427 0.12601 -0.162177 0.13883 -0.0047562 -0.153113 0.175637 -0.16916 -0.127084 -0.172117 -0.173354 -0.125871 -0.175197 0.177081 0.1404 -0.140567 -0.150878 -0.176623 0.178199 0.140865 -0.169639 0.157195 -0.168907 0.176406
internal_weight=0 3139.86 2377.5 2018.98 2574.59 834.662 565.267 1828.01 637.38 358.516 190.971 478.183 1752.49 159.196 175.186 1739.93 121.188 127.13 197.282 57.7149 1618.74 1716.57 1575.16 75.5172 119.138 450.079 183.331 438.137 145.048 68.8149 141.409 135.728 1593.36 1568.49 75.3093 93.4967 412.643 96.255 1548.79 55.2438 91.9211 424.502 95.8504 53.127 151.235 1509.44 389.185 78.6714 1493.18 1467.81 57.4293 1410.38 1481.62 67.8632 58.315 69.1046 1378.04 1454.96 59.4784 104.34 66.4674 123.32 139.567
internal_count=22219 12638 9581 8141 10361 3358 2277 7374 2564 1440 767 1924 7071 640 703 7003 487 510 794 232 6516 6927 6359 303 479 1811 737 1767 582 276 568 545 6414 6314 302 376 1665 387 6253 222 369 1708 385 213 608 6095 1566 316 6012 5910 231 5679 5983 273 234 278 5549 5876 240 419 267 496 562
is_linear=0
shrinkage=0.1


Tree=2
num_leaves=64
num_cat=0
split_feature=537 520 665 71 561 585 338 56 668 144 256 557 625 493 483 641 694 578 683 581 550 535 519 491 319 536 561 623 29 623 245 557 624 400 611 570 322 263 188 41 482 643 603 623 39 68 222 144 575 639 618 595 454 612 550 467 183 84 400 605 21 561 663
split_gain=3737.34 2148.65 859.001 643.633 599.369 408.419 385.272 271.532 226.312 224.545 187.648 173.176 159.623 146.6 138.016 109.372 88.3962 85.1423 84.6035 80.9897 66.9573 66.9503 66.8188 66.6304 65.4441 63.7248 60.625 75.6496 59.1949 49.0809 71.5378 46.6948 40.1244 39.682 47.8384 32.7541 29.4125 28.2618 27.7364 26.2886 26.4074 20.9457 18.9845 16.0764 14.9193 20.5656 16.7104 26.5108 14.3019 14.0512 12.2304 13.4643 9.95899 8.94055 5.49852 4.06485 3.76652 2.7501 2.31071 2.02743 1.30808 1.03457 1.01238
threshold=0.0096594295464456099 9.903691768646242 1.0000000180025095e-35 0.0029280928429216151 0.01542442897334695 0.0028257202357053761 4.9032007609639558e-06 0.0049381512217223653 1.0000000180025095e-35 0.025694560259580616 0.0061247299890965232 0.018155926838517192 1.5000000000000002 0.0024850247427821164 0.0059588737785816201 1.5000000000000002 2.5000000000000004 0.0026119834510609512 2.5000000000000004 0.0015861299470998349 0.0084722749888896959 0.016301398165524009 39841.000000000007 0.00036636467848438775 1.2067170587215517e-06 0.038521656766533859 0.0076429909095168122 1.0000000180025095e-35 0.0014896504580974581 1.5000000000000002 0.00060001699603162717 0.0059104242827743301 2.5000000000000004 1.4026794588062332e-06 0.0063992522191256293 0.0098275081254541891 1.1701972724154076e-07 0.084572732448577895 0.00070673305890522908 0.0047993373591452846 0.0063240937888622293 1.0000000180025095e-35 0.0023793943691998725 1.5000000000000002 0.021861973218619827 0.00063335779123008262 0.001258957898244262 0.012563318014144899 0.0097829443402588385 4.5000000000000009 6.5587852001190194 0.048423562198877342 0.00090554490452632319 0.0039510570932179698 0.0054739280603826055 0.0033862751442939047 0.0055996321607381114 0.0023050764575600628 0.0009325389110017569 0.052565323188900955 0.0061876440886408099 0.0070929471403360375 1.5000000000000002
decision_type=2 2 2 2 2 2 2 2 2 2 2 2 2 2 2 2 2 2 2 2 2 2 2 2 2 2 2 2 2 2 2 2 2 2 2 2 2 2 2 2 2 2 2 2 2 2 2 2 2 2 2 2 2 2 2 2 2 2 2 2 2 2 2
left_child=1 6 3 8 5 42 25 12 41 16 15 -6 35 28 -9 21 20 -15 23 -14 26 50 31 -17 -8 33 29 37 32 39 -31 -21 57 -1 -35 62 -16 53 -32 44 -41 -2 -3 -20 46 -46 54 -48 -26 -13 51 56 -19 55 61 -28 59 -11 -33 60 -5 -7 -4
right_child=2 4 7 10 11 9 24 14 -10 13 -12 49 19 17 36 18 -18 52 43 22 -22 -23 -24 -25 48 -27 27 -29 -30 30 38 58 -34 34 -36 -37 -38 -39 -40 40 -42 -43 -44 -45 45 -47 47 -49 -50 -51 -52 -53 -54 -55 -56 -57 -58 -59 -60 -61 -62 -63 -64
leaf_value=0.16335882462650519 -0.069513224322898845 0.049414689211064067 -0.17481143698985815 0.16698375680768576 -0.094357411689155013 -0.16506494241836273 0.02924973657941592 -0.11022635671877656 0.14448716799359626 -0.11474501387062781 -0.08820543985790287 0.076424013844406932 -0.12428148850511177 -0.054036621844286814 0.16665239525860678 0.087024082822703935 0.0023223056625359174 0.16411975418487013 0.06923128634907208 -0.024045935396516588 -0.019983068715728452 -3.3171864099227031e-05 -0.069133041442707932 -0.11988205701287846 -0.16129996942118624 -0.01323514476522201 -0.16730066927362316 0.034656496815453429 0.037284011536907184 0.048433458894276041 -0.040899049425388738 0.16191891515769943 -0.013544392589199962 0.14428853505907407 -0.031603634058848737 -0.040968813074627554 0.041258559414287285 -0.030375387137379629 -0.16795194281987352 -0.14681509581063612 -0.0085941737917440315 -0.16218855436855162 0.16095324408713907 0.16566820966217577 -0.034749625356913595 -0.14922293401281511 -0.15256423899872681 -0.025993480037480622 -0.063492733105775911 0.16670166126043057 0.10168416016551095 0.10085714491526965 0.076696034503974164 -0.088742758794151874 -0.10899425935825363 -0.11015841270598255 0.11963835584982788 -0.16511982295896385 0.1070187905979785 0.12310329195893553 0.12841768181715218 -0.1277125472339781 -0.13193809838717138
leaf_weight=380.39888668060303 38.081152454018593 25.756889030337334 106.84339959919453 1313.9133903682232 39.662767231464386 1410.0012994855642 45.800047069787979 26.729659870266914 37.92521259188652 25.466954663395882 32.94021612405777 24.810618579387665 41.913592725992203 44.429655686020851 87.110041439533234 28.314654022455215 42.386070996522903 33.166640251874924 29.038443505764008 25.107322722673416 43.275006204843521 26.137456208467484 39.679638758301735 32.23796072602272 41.13376621901989 24.761813953518867 82.142478749155998 37.107195928692818 25.148732379078865 28.487197861075401 24.721541181206703 29.839642852544785 24.979319840669632 38.728395655751228 24.814586520195007 24.955149978399277 24.760671928524971 28.491649731993675 61.934368342161179 30.676494166254997 24.756004497408867 80.737997502088547 41.305867239832878 51.795508578419685 24.531999036669731 46.594349831342697 51.636511743068695 24.827563256025314 26.261013135313988 85.478012561798096 39.575784683227539 39.712437376379967 26.131839036941528 31.100447967648506 26.052473872900009 24.908417388796806 30.359027549624443 83.600850895047188 24.655447751283646 25.042175352573395 26.958042919635773 26.30838830769062 24.643217280507088
leaf_count=1573 154 104 434 5436 162 5804 184 109 155 104 133 100 170 181 356 114 173 135 117 101 175 106 160 130 168 99 337 150 102 115 100 122 101 157 100 101 100 116 254 125 100 330 170 212 100 191 212 101 106 352 160 162 106 127 106 102 125 343 100 102 110 108 101
internal_value=0 -0.0708049 0.0972724 0.127823 -0.110369 -0.12249 0.102457 -0.0254642 -0.0656089 -0.129494 0.145941 0.0831509 -0.0763665 -0.0422459 0.0909028 0.150686 -0.140551 0.0499719 0.0659654 -0.00637693 -0.143537 0.158614 0.0357414 -0.0232899 -0.0626838 0.142389 -0.14622 -0.0937126 -0.10227 -0.152173 -0.087769 0.0882276 -0.128534 0.151079 0.0761743 -0.147984 0.13951 -0.122333 -0.132586 -0.15657 -0.0863322 -0.133314 0.11947 0.132294 -0.158933 -0.110769 -0.161086 -0.112333 -0.124674 0.147262 0.161422 0.162996 0.127504 -0.140944 -0.163557 -0.155147 0.16469 -0.154507 0.139456 0.165603 0.166305 -0.16447 -0.167833
internal_weight=0 3131.78 2289.01 1832.77 2549.88 2399.93 581.899 456.238 156.744 2332.86 1676.03 149.951 317.637 262.924 138.6 1643.08 2069.94 103.728 141.387 161.196 2027.55 1501.7 119.282 60.5526 113.195 468.704 1984.28 203.75 159.196 1780.53 115.143 79.6024 134.047 443.942 63.543 156.442 111.871 166.643 86.6559 1665.39 55.4325 118.819 67.0628 80.834 1609.95 71.1263 1538.83 76.4641 67.3948 110.289 1475.56 1435.99 59.2985 138.151 1462.36 107.051 1396.27 109.068 54.4951 1365.91 1340.87 1436.31 131.487
internal_count=22243 12843 9400 7546 10456 9842 2387 1854 639 9568 6907 614 1289 1072 565 6774 8496 422 573 653 8323 6201 483 244 458 1929 8148 832 650 7316 469 323 548 1830 257 636 456 682 354 6847 225 484 274 329 6622 291 6331 313 274 452 6095 5935 241 566 6018 439 5773 447 222 5648 5546 5912 535
is_linear=0
shrinkage=0.1


Tree=3
num_leaves=64
num_cat=0
split_feature=537 520 665 71 624 585 330 561 694 479 668 256 543 201 693 641 627 323 683 359 466 561 554 536 638 693 74 42 548 550 487 576 264 321 262 391 655 643 653 279 262 570 80 575 250 520 594 459 247 310 642 140 576 20 7 610 103 611 112 39 645 250 365
split_gain=3101.6 1798.82 730.412 540.023 539.269 601.946 316.628 304.738 227.362 225.594 217.01 154.589 136.837 120.974 120.862 95.2424 90.24 76.8371 71.7768 66.431 62.3128 64.5025 125.051 52.9352 52.783 52.1336 49.3187 47.9492 46.167 60.3394 45.9595 40.1756 39.4706 25.8635 23.1584 22.8251 21.1845 19.6076 19.0882 17.8477 16.0531 14.5944 14.133 12.8352 10.9959 9.37053 7.56535 6.90191 7.12181 6.73638 6.34371 5.65282 4.7994 4.59193 3.25263 3.9144 7.7044 3.55452 2.9487 2.38941 1.84457 1.06634 0.43473
threshold=0.0096594295464456099 9.903691768646242 1.0000000180025095e-35 0.0030472711659967904 1.0000000180025095e-35 0.010702480096369984 9.2906120130464853e-07 0.018562206067144874 1.5000000000000002 0.017299436964094642 1.0000000180025095e-35 0.0061247299890965232 0.0022683126153424387 0.0018254936439916494 2.5000000000000004 1.5000000000000002 2.5000000000000004 1.0771212828331047e-06 2.5000000000000004 0.0002310654672328383 0.014748049434274437 0.012341251596808435 0.0050148353911936292 0.034837804734706886 9.5000000000000018 2.5000000000000004 0.0039683396462351092 0.0069807795807719239 0.010805833619087936 0.0056199515238404283 0.00058658310445025574 0.0064191941637545833 4.056775964045301e-07 1.1851788030980972e-06 0.026892587542533878 0.060814963653683669 1.0000000180025095e-35 1.0000000180025095e-35 11.500000000000002 0.12045481055974962 0.0039542452432215222 0.0045869119931012401 0.0035427528200671081 0.0075812768191099176 0.0022657825611531739 11.029722690582277 0.0081473235040903109 0.022722305729985241 0.006309579126536847 1.6389760276069868e-05 58.500000000000007 0.00064982398180291067 0.00092721276450902234 0.005761410342529417 0.78939974308013927 0.01405339688062668 0.0044834748841822156 0.0065968353301286706 0.0039012351771816616 0.0042655635625123986 1.5000000000000002 0.0036919900448992853 0.0017346403328701856
decision_type=2 2 2 2 2 2 2 2 2 2 2 2 2 2 2 2 2 2 2 2 2 2 2 2 2 2 2 2 2 2 2 2 2 2 2 2 2 2 2 2 2 2 2 2 2 2 2 2 2 2 2 2 2 2 2 2 2 2 2 2 2 2 2
left_child=1 6 3 10 20 24 23 8 13 14 37 15 41 33 26 35 44 31 30 -14 21 27 -23 36 58 34 49 28 39 46 -17 -8 -18 -7 -21 40 51 -2 -27 45 -5 -11 -20 -19 -15 -3 -30 48 53 -4 54 -1 -35 59 55 -47 57 -57 -6 -42 -54 -53 -61
right_child=2 4 9 11 5 7 17 -9 -10 12 -12 -13 19 16 -16 18 32 43 42 25 -22 22 -24 -25 -26 38 -28 -29 29 -31 -32 -33 -34 52 -36 -37 -38 -39 -40 -41 47 -43 -44 -45 -46 50 -48 -49 -50 -51 -52 61 60 -55 -56 56 -58 -59 -60 62 -62 -63 -64
leaf_value=0.096254665002414391 -0.063861928438071439 -0.099352111239610241 -0.1622613489333859 0.088718102617968142 0.16508048759644289 -0.055880015490061878 -0.053073793468890587 0.14765885891719047 0.12077278666190305 -0.14662959423508731 0.13588596076337001 -0.076837972804190802 0.15684873560349302 -0.073389913699959036 0.087954803046180849 0.07221639839272305 0.11741978937822109 -0.15440189738114887 0.15130051103669417 -0.10552919064022007 0.02521773499762929 -0.14808809296151884 0.08932440261911849 -0.0063768720789493805 0.0024824082186201257 0.16244174048610366 -0.020922998693794669 -0.0095847087726619665 -0.075090440636165393 0.049806865372770619 -0.10328035326858918 0.11219239770273429 -0.043009398883847472 -0.099319530409010107 0.0266463961151399 0.050561823167181087 0.061043290733862644 -0.1517057075802288 0.039424093269308361 -0.062362216919079783 0.12472460246383842 -0.040717860075336829 0.057137771504343238 -0.066143707080277434 -0.16120746194411664 -0.15545912429865719 -0.15051795920327771 0.096061198629300404 0.096401019452286754 -0.10235883337725789 -0.093946559144249431 0.15635167111875142 -0.12194621868048304 0.10294812743584292 -0.10513933092227955 -0.10889998947027642 -0.076621987864173846 -0.15441440725772054 0.11422811076069117 0.15692965354348684 -0.15672732608051412 0.12251347140669602 0.12427236121347268
leaf_weight=24.650143668055534 40.354794874787331 43.586448416113853 121.20068457722664 46.103264451026917 117.47740545868874 33.111613497138023 24.88136887550354 53.501596257090569 42.537238076329231 26.204410225152969 43.283442869782448 32.69826565682888 76.281155675649643 34.444033682346344 29.960802346467972 26.509745910763741 37.662262231111526 35.526506394147873 53.402924463152885 24.518426463007927 23.872122898697853 54.632999539375305 36.042966023087502 24.753929227590561 26.111494943499565 26.168066740036011 36.494554400444031 27.294446423649788 24.100519716739655 27.149311095476151 31.697058469057083 33.418217152357101 24.728001117706299 24.79107940196991 26.923325285315514 24.704888612031937 30.577924594283104 79.792325630784035 25.116728931665421 25.789168581366539 48.93970413506031 26.985267877578735 25.03154444694519 34.776317462325096 27.955487102270126 1152.5659632533789 43.157695353031158 27.82542259991169 27.833434477448463 30.559239983558655 24.919307172298431 328.62273997068405 37.800705313682556 25.011834681034088 23.795304462313652 35.317191705107689 23.709033131599426 105.41330833733082 24.366403222084045 1219.4784449338913 323.31396551430225 31.870099782943726 26.583664759993553
leaf_count=105 164 182 505 192 489 136 100 227 175 107 181 133 321 141 124 107 153 149 224 100 98 226 145 99 108 108 150 112 100 110 129 136 101 103 110 102 128 335 102 108 205 110 102 142 115 4902 181 118 118 126 104 1404 158 106 99 150 100 449 101 5226 1367 136 112
internal_value=0 -0.065005 0.0901599 0.118944 -0.101806 -0.0346626 0.0952119 -0.0788931 -0.0997813 -0.0235554 -0.0540055 0.136459 0.0449703 -0.117223 -0.0963444 0.14091 -0.0304946 -0.0425787 0.060507 0.0867486 -0.134217 -0.136541 -0.0537736 0.135447 0.133308 0.0336845 -0.125985 -0.141325 -0.143668 -0.0747248 -0.0234822 0.0419537 0.0541592 -0.142918 -0.0371628 0.148459 0.143887 -0.122972 0.1041 -0.148148 0.150123 -0.0946393 0.122347 -0.112284 -0.114655 -0.149672 -0.124986 0.152115 0.1532 -0.150948 -0.151205 0.150289 -0.150223 0.154324 -0.152198 -0.152968 -0.134671 -0.143841 0.157206 0.155236 -0.153433 0.153707 0.156333
internal_weight=0 3048.22 2229.66 1779.25 2479.15 807.801 569.077 639.846 586.344 450.413 163.431 1615.82 232.197 543.807 218.215 1583.12 124.79 128.602 136.641 179.008 1671.35 1647.47 90.676 440.475 167.955 102.727 188.254 1556.8 1529.5 94.4075 58.2068 58.2996 62.3903 419.017 51.4418 1446.48 415.721 120.147 51.2848 1435.1 1421.78 53.1897 78.4345 70.3028 62.3995 1409.31 67.2582 1375.67 1347.85 151.76 1365.72 385.143 385.906 1320.01 1340.8 1317.01 164.44 140.731 141.844 1295 361.115 360.493 1246.06
internal_count=22256 12839 9417 7554 10440 3374 2399 2676 2449 1863 680 6874 958 2274 905 6741 510 527 562 741 7066 6968 371 1872 698 420 781 6597 6485 391 236 236 254 1764 210 6179 1773 499 210 6094 6077 217 326 291 256 5986 281 5885 5767 631 5804 1645 1628 5649 5700 5601 699 599 590 5543 1525 1540 5338
is_linear=0
shrinkage=0.1


Tree=4
num_leaves=64
num_cat=0
split_feature=537 520 665 71 624 321 338 596 627 693 201 256 0 619 684 685 663 623 154 466 597 251 585 684 548 8 587 138 185 635 296 216 110 19 689 561 554 625 443 669 661 18 262 339 666 610 231 1 65 296 205 563 588 183 558 643 519 389 304 49 103 580 453
split_gain=2651.14 1328.6 784.486 499.005 423.652 499.336 266.636 249.967 230.364 199.697 164.67 162.388 85.0224 74.2707 84.4074 70.3666 124.899 67.1532 65.821 64.598 63.3582 57.6198 76.2808 54.9709 60.5665 42.0134 40.7953 40.2631 50.747 40.1392 39.9547 39.3998 36.5028 35.962 35.8215 27.5858 58.6175 25.9083 21.7549 16.9078 16.8267 46.5328 12.9354 11.9347 11.7562 9.36707 9.18355 7.83477 7.50951 5.67277 5.5067 5.47335 4.40797 4.37314 3.88659 3.35658 3.35638 3.33455 2.97129 2.11916 2.10914 5.50464 1.92784
threshold=0.0087486123666167277 9.903691768646242 1.0000000180025095e-35 0.003210903843864799 1.0000000180025095e-35 1.0000000180025095e-35 6.9354400693555371e-06 0.010639299638569357 1.5000000000000002 1.0000000180025095e-35 0.0018254936439916494 0.0049501422327011832 266124.00000000006 1.0000000180025095e-35 1.5000000000000002 8.5000000000000018 1.0000000180025095e-35 1.0000000180025095e-35 0.00034012159449048346 0.014339426998049023 0.0062309373170137414 0.0013533717137761416 0.01273573422804475 3.5000000000000004 0.009123550262302162 0.014837385155260565 0.046604068949818618 0.0012870253412984314 0.00093780315364710997 128.50000000000003 7.5951936651108562e-06 0.0047585784923285255 0.0013039106270298364 0.0030331317102536563 1.0000000180025095e-35 0.012341251596808435 0.0031911697005853061 1.0000000180025095e-35 0.0094772651791572588 7.5000000000000009 1.0000000180025095e-35 0.0014124353765510025 0.004011652898043395 5.2167386456858374e-05 1.0000000180025095e-35 0.0073191786650568256 0.001347294601146132 2.1053698062896733 0.0027634329162538056 1.2128971320635175e-05 0.0018446039175614717 0.0040767793543636808 0.01349515561014414 0.0055996321607381114 0.0051687338855117568 1.0000000180025095e-35 6570.5000000000009 3.5215451816839054e-06 1.0451657090015944e-05 0.00042003703129012143 0.0054144926834851512 0.0026051534805446868 0.00040716021612752234
decision_type=2 2 2 2 2 2 2 2 2 2 2 2 2 2 2 2 2 2 2 2 2 2 2 2 2 2 2 2 2 2 2 2 2 2 2 2 2 2 2 2 2 2 2 2 2 2 2 2 2 2 2 2 2 2 2 2 2 2 2 2 2 2 2
left_child=1 6 3 9 17 23 26 8 48 32 21 12 27 14 -12 16 -10 19 -19 31 -14 22 -7 24 -6 -8 34 28 -5 58 -24 35 -2 49 42 40 -37 -22 -9 56 47 -42 -1 -20 55 62 -29 -3 -4 -16 -27 -17 -23 59 -43 -34 -39 -44 -18 -48 -49 -62 -32
right_child=2 4 7 11 5 10 25 38 15 -11 13 -13 20 -15 33 51 29 18 43 -21 37 52 30 -25 -26 50 -28 46 -30 -31 45 -33 44 -35 -36 36 -38 39 -40 -41 41 54 57 -45 -46 -47 53 60 -50 -51 -52 -53 -54 -55 -56 -57 -58 -59 -60 -61 61 -63 -64
leaf_value=0.062648991460812348 0.012719354859440507 -0.088730279818279092 -0.15378858053925126 -0.038739253806407276 -0.085669698660899588 0.080021316982318846 0.012959379047069106 0.040362694785259612 -0.091422699102317678 0.15052169493135029 -0.10056195180704393 -0.059431251188010271 -0.067407315457535075 -0.14292225861139707 0.15998117972985304 -0.057358960105274116 0.15014793381476543 0.078008674557525318 -0.054986628738222167 0.031061885286198989 0.016163802146933904 -0.14739414716275906 0.013441980896538145 0.14882829537338757 0.12588971076221073 -0.15084183609593921 -0.0059172508228205025 0.079861453598121135 0.13619732137122473 -0.0069053548096950417 -0.10569520930461634 -0.012747452512767944 -0.10262184278085425 0.000738945750623789 0.017368867510426111 -0.14133790146931166 0.047921557407257051 0.092783284841617214 0.15445449209406439 0.038529579961909421 0.019425685701088373 -0.091300843449427682 0.1482989379776084 -0.13452123123813134 -0.06396129373321556 -0.067689520265922357 0.11657263058314141 -0.14714663451825633 -0.098933185575895338 0.091232854114560988 -0.080149140720343959 -0.12804359939524843 -0.096697233095226542 0.10116482652378517 -0.14707149251180965 -0.15514704104076396 0.14294934145472774 0.10766642464173776 0.097548088209378381 0.14872459986075356 -0.14343415940310639 -0.078920164033620441 -0.15008880609761854
leaf_weight=23.157870665192604 23.183884114027023 30.310334384441376 157.51520593464375 27.554995313286781 24.795040309429169 28.697772562503815 39.527557611465454 24.283605366945267 47.907951593399048 39.218694791197777 30.129376262426376 44.607366040349007 27.87647557258606 25.131385460495949 35.864246875047684 24.067714244127274 56.64287443459034 28.580384165048599 38.802260607481003 23.387457504868507 34.556020349264145 226.02733442187309 26.707691058516502 122.18586353957653 27.530331403017044 30.432715445756912 23.466321006417274 24.769320949912071 39.323273912072182 25.796333596110344 26.998918503522873 25.980923473834991 26.304232969880104 30.62558202445507 26.582410931587219 45.120408952236176 24.735007926821709 25.915070116519928 59.700384929776192 25.215436831116676 24.456567049026489 23.393536314368248 278.68699875473976 40.554938212037086 28.192495599389076 28.203305169939995 42.07227398455143 1114.0645218938589 38.728002116084099 26.275666683912277 24.012700200080872 24.865589305758476 27.10076530277729 29.813745766878128 71.352017477154732 65.154100298881531 79.185600966215134 36.051450863480568 23.801978975534439 1214.2188012748957 46.121258199214935 25.016618832945824 61.301772713661194
leaf_count=101 96 129 675 114 103 119 163 102 198 170 126 184 115 105 151 100 242 117 164 96 144 998 112 530 117 130 97 104 174 105 116 110 108 127 111 193 100 110 258 103 104 103 1240 175 122 121 183 4937 165 110 100 102 117 130 315 282 338 156 100 5445 204 110 265
internal_value=0 -0.0658041 0.0795044 0.109907 -0.0973155 -0.0353448 0.0850938 -0.0335406 -0.0665459 -0.0468247 -0.0804328 0.127592 0.132939 0.010362 0.0426084 0.00817428 0.0413667 -0.126936 -0.0502222 -0.132592 0.070184 -0.112004 -0.0667286 0.112331 0.025913 -0.0655018 0.121648 0.141661 0.0646116 0.10154 -0.0964864 -0.135288 -0.101681 0.0896854 0.129854 -0.137544 -0.0745927 0.093714 0.122328 0.113998 -0.14078 -0.10294 0.138626 -0.0968005 -0.123769 -0.121587 0.145539 -0.144403 -0.143519 0.132817 -0.121671 -0.0951225 -0.142368 0.146741 -0.134399 -0.141314 0.131571 0.144 0.135974 0.147741 -0.145751 -0.122155 -0.137851
internal_weight=0 2791.37 2280.47 1797.16 2309.45 747.575 481.918 483.31 399.326 182.053 573.064 1615.11 1570.5 148.026 122.895 203.082 154.149 1561.88 107.938 1453.94 192.749 425.038 171.909 174.511 52.3254 93.973 387.945 1377.75 66.8783 106.241 143.212 1430.55 142.835 92.7655 364.479 1404.57 69.8554 164.872 83.984 130.316 1334.71 119.202 337.896 79.3572 119.651 116.504 1310.87 1215.51 196.243 62.1399 54.4454 48.9333 253.128 1286.1 94.7456 91.4583 105.101 314.738 80.4449 1256.29 1185.2 71.1379 88.3007
internal_count=22141 12172 9969 7922 10074 3217 2098 2047 1687 778 2467 7144 6960 619 514 847 645 6857 456 6401 810 1848 733 750 220 393 1705 6150 288 447 614 6305 608 388 1608 6195 293 695 360 551 5902 522 1497 339 512 502 5862 5380 840 261 230 202 1115 5758 418 390 448 1396 342 5628 5251 314 381
is_linear=0
shrinkage=0.1


Tree=5
num_leaves=64
num_cat=0
split_feature=537 520 665 71 624 321 354 596 663 623 694 585 653 256 641 623 548 251 296 19 8 683 7 684 535 604 148 491 340 189 655 341 683 561 540 110 645 520 440 553 595 618 643 675 535 80 481 7 653 202 610 684 78 175 557 520 400 9 183 344 147 440 520
split_gain=2242.81 1284.22 529.519 407.912 383.18 435.66 250.889 206.569 176.744 158.727 142.974 173.948 132.731 117.523 76.2321 68.8585 70.9567 66.1814 65.7229 83.989 63.8179 58.5865 57.8037 53.4684 52.5162 44.6624 40.0954 39.5814 36.9089 27.4834 25.898 25.6285 24.758 23.421 60.3991 21.5625 17.8652 16.9071 16.3053 15.6252 14.3283 15.0689 13.5471 12.4475 34.6996 12.4157 11.8911 12.3976 11.5537 10.7068 10.4307 13.2821 8.34928 7.44793 8.41267 6.13487 5.49581 5.36285 4.38292 3.66549 2.69737 2.64906 2.58821
threshold=0.0096594295464456099 9.903691768646242 1.0000000180025095e-35 0.0030064502498134975 1.0000000180025095e-35 1.0000000180025095e-35 1.6149862744896384e-06 0.010479185264557602 1.0000000180025095e-35 1.0000000180025095e-35 1.5000000000000002 0.0095293917693197745 25.500000000000004 0.0061247299890965232 1.5000000000000002 1.0000000180025095e-35 0.027959848754107956 0.0006387043686117978 1.1344594440743096e-05 0.0031197491334751253 0.016978205181658271 2.5000000000000004 0.41737358272075659 3.5000000000000004 0.016301398165524009 0.033478733152151115 0.016221637837588791 0.00032937615469563758 2.2974799321673348e-05 0.0018641535425558688 1.0000000180025095e-35 5.6903389122453525e-05 1.0000000180025095e-35 0.012341251596808435 0.019717198796570305 0.0011746734962798657 10.500000000000002 14.257548332214357 0.00078031525481492292 0.00031913197017274802 0.049171991646289832 6.5587852001190194 1.0000000180025095e-35 1.5000000000000002 0.0064935141708701858 0.0031313515501096849 0.02985439915210009 0.78939974308013927 10.500000000000002 0.0041476937476545581 0.012370253447443249 1.0000000180025095e-35 0.0042728732805699119 0.0010253873188048603 0.0065291852224618205 14.330111026763918 0.00014256039139581847 0.004507192876189948 0.0055996321607381114 0.0012084655463695528 0.0013334563700482251 0.00067237115581519913 8.8209419250488299
decision_type=2 2 2 2 2 2 2 2 2 2 2 2 2 2 2 2 2 2 2 2 2 2 2 2 2 2 2 2 2 2 2 2 2 2 2 2 2 2 2 2 2 2 2 2 2 2 2 2 2 2 2 2 2 2 2 2 2 2 2 2 2 2 2
left_child=1 6 3 9 15 23 22 8 32 42 11 35 31 14 24 16 26 -17 19 29 28 27 30 25 40 -6 33 -16 -8 -13 57 48 -4 43 -35 -7 -21 -19 -14 -9 41 58 -2 46 50 -23 47 -3 -10 53 55 61 -11 54 -20 -45 -22 -1 59 -5 -39 -52 -59
right_child=2 4 7 13 5 10 20 39 12 52 -12 18 38 -15 21 17 -18 37 49 36 56 45 -24 -25 -26 -27 -28 -29 -30 -31 -32 -33 -34 34 -36 -37 -38 60 -40 -41 -42 -43 -44 44 -46 -47 -48 -49 -50 -51 51 -53 -54 -55 -56 -57 -58 62 -60 -61 -62 -63 -64
leaf_value=0.085211849833714867 -0.063198375500228998 -0.14192208519096036 -0.15136318425101689 0.14073648096422964 0.11991701165626706 0.14822818973340376 0.072394281506053981 0.052728604200772355 0.13579254954904843 0.057120305418470067 0.10824185196064556 -0.017333248899656841 -0.035176289949264257 -0.068515710406582095 0.071303467378880867 0.068052898772343981 0.046252397294464592 -0.023360526674188212 -0.12927057680146631 -0.036885167859758115 -0.082116721509533572 0.13978975141200739 -0.030515958367119247 0.13921868890335223 -0.016199944900538298 -0.062229768187922752 0.0039932774672306378 -0.09418079693750675 -0.077273477027901716 0.13008869079528723 0.037159500656757133 -0.0042626094088754089 -0.057197388340823996 -0.13492248357579628 0.056493004428056041 0.017755355734128554 -0.14164179331510515 -0.089799153647474872 -0.13560713216193046 0.15013611933985405 0.066249351298641374 0.070347076944665396 -0.14153019139573422 -0.086647006851299183 0.0034282055682825479 0.050484445339212126 -0.061717834927550452 -0.072354729081586772 0.049527049285830349 -0.066306787556434696 -0.083786781076528205 -0.02258817949441894 0.14439065156631758 -0.14114093568281935 -0.052645000655754795 -0.14022408806657891 -0.15449167659281005 0.14371195295135086 0.093514057659941641 0.093580279095110172 -0.14496847316402225 -0.14115216913831802 0.097491756809009678
leaf_weight=24.122386425733566 35.415606871247292 947.45773124694824 125.62945824861526 1168.058696642518 23.22887746989727 26.433354392647743 45.836035907268524 25.273895472288132 57.153747916221619 24.15053828060627 39.222074151039124 24.508942976593971 28.804947480559349 31.401284962892532 24.264389380812645 35.814068853855133 23.517751768231392 24.327314749360085 37.616865068674088 24.861770391464233 23.019371792674065 48.342731773853302 23.499035179615021 126.60741564631462 23.124647736549377 29.346093580126762 22.86692225933075 32.889993026852608 24.461120277643204 24.67655722796917 28.786445334553719 24.800925761461258 37.996228933334351 49.299926906824112 23.836007639765739 24.103124350309372 51.611334711313248 22.633489817380905 38.717976227402687 56.052364155650139 32.224787890911102 36.248158782720566 71.759677082300186 30.837471202015877 23.223063483834267 25.108283653855324 22.116115123033524 29.6135443598032 23.384724944829941 29.03666028380394 21.745373919606209 22.705384075641632 23.062679603695869 263.85881501436234 26.244781732559204 204.32396392524242 29.369046568870544 306.26376523077488 29.142988383769989 24.827840223908424 32.458666771650314 24.873336061835289 21.982574358582497
leaf_count=110 147 4404 554 5510 100 113 196 112 253 103 165 106 119 130 100 148 97 102 167 106 100 219 97 574 96 125 100 136 102 105 124 104 160 216 99 100 233 100 168 248 140 155 326 142 102 104 99 129 99 125 100 102 105 1207 114 951 128 1427 131 112 145 115 95
internal_value=0 -0.0580799 0.0791798 0.104911 -0.0901823 -0.0314479 0.0826307 -0.021218 -0.0558166 -0.0494764 -0.0740479 -0.0876409 0.0147249 0.121087 0.125254 -0.118403 -0.124334 -0.0435251 -0.106137 -0.0434854 -0.0423733 0.051862 0.120541 0.104241 0.132506 0.0189832 -0.127184 -0.0239079 0.0199614 0.0577473 0.12991 0.0845836 -0.129977 -0.129328 -0.072617 0.0875518 -0.108501 -0.0940615 -0.0939024 0.120873 0.135181 0.136892 -0.116469 -0.132397 -0.114266 0.11035 -0.138223 -0.13989 0.11166 -0.128021 -0.123224 -0.086646 0.101861 -0.133271 -0.0990774 -0.133595 -0.124824 0.13736 0.138807 0.139834 -0.124308 -0.116715 0.140922
internal_weight=0 2840.35 2047.84 1630.02 2313.01 751.357 527.34 417.814 336.488 154.389 572.174 532.952 172.862 1475.63 1444.23 1561.65 1446.42 115.234 482.416 125.659 122.686 130.605 404.654 179.182 1313.63 52.575 1422.9 57.1544 70.2972 49.1855 381.155 105.339 163.626 1400.03 73.1359 50.5365 76.4731 79.4195 67.5229 81.3263 1290.5 1258.28 107.175 1326.9 327.709 73.451 999.187 977.071 80.5385 356.757 304.486 69.3241 47.2132 327.72 63.8616 235.161 52.3884 352.369 1222.03 1192.89 55.0922 46.6187 328.246
internal_count=22201 12870 9331 7514 10491 3340 2379 1817 1457 681 2541 2376 743 6833 6703 7151 6656 495 2163 550 526 559 1853 799 6144 225 6559 236 298 211 1756 456 714 6459 315 213 339 347 287 360 6048 5908 473 6144 1512 323 4632 4533 352 1613 1410 317 208 1488 281 1093 228 1632 5753 5622 245 215 1522
is_linear=0
shrinkage=0.1


Tree=6
num_leaves=64
num_cat=0
split_feature=537 587 653 71 354 39 206 111 256 206 639 624 531 54 695 665 483 689 402 639 498 587 689 550 600 62 554 584 688 535 449 623 689 625 485 188 113 31 138 237 149 485 395 663 641 623 87 110 1 233 196 31 618 605 587 591 453 317 156 477 579 42 589
